/*
 * Copyright (c) 2025 EdgeImpulse Inc.
 *
 * Generated by Edge Impulse and licensed under the applicable Edge Impulse
 * Terms of Service. Community and Professional Terms of Service
 * (https://edgeimpulse.com/legal/terms-of-service) or Enterprise Terms of
 * Service (https://edgeimpulse.com/legal/enterprise-terms-of-service),
 * according to your product plan subscription (the “License”).
 *
 * This software, documentation and other associated files (collectively referred
 * to as the “Software”) is a single SDK variation generated by the Edge Impulse
 * platform and requires an active paid Edge Impulse subscription to use this
 * Software for any purpose.
 *
 * You may NOT use this Software unless you have an active Edge Impulse subscription
 * that meets the eligibility requirements for the applicable License, subject to
 * your full and continued compliance with the terms and conditions of the License,
 * including without limitation any usage restrictions under the applicable License.
 *
 * If you do not have an active Edge Impulse product plan subscription, or if use
 * of this Software exceeds the usage limitations of your Edge Impulse product plan
 * subscription, you are not permitted to use this Software and must immediately
 * delete and erase all copies of this Software within your control or possession.
 * Edge Impulse reserves all rights and remedies available to enforce its rights.
 *
 * Unless required by applicable law or agreed to in writing, the Software is
 * distributed on an "AS IS" BASIS, WITHOUT WARRANTIES OR CONDITIONS OF ANY KIND,
 * either express or implied. See the License for the specific language governing
 * permissions, disclaimers and limitations under the License.
 */
// Generated on: 09.12.2025 10:01:01

#include <stdio.h>
#include <stdlib.h>
#include "edge-impulse-sdk/tensorflow/lite/c/builtin_op_data.h"
#include "edge-impulse-sdk/tensorflow/lite/c/common.h"
#include "edge-impulse-sdk/tensorflow/lite/micro/micro_mutable_op_resolver.h"
#include "edge-impulse-sdk/porting/ei_classifier_porting.h"

#if EI_CLASSIFIER_PRINT_STATE
#if defined(__cplusplus) && EI_C_LINKAGE == 1
extern "C" {
    extern void ei_printf(const char *format, ...);
}
#else
extern void ei_printf(const char *format, ...);
#endif
#endif

#define STRINGIZE(x) #x
#define STRINGIZE_VALUE_OF(x) STRINGIZE(x)

#if defined (__GNUC__)  /* GNU compiler */
#define ALIGN(X) __attribute__((aligned(X)))
#define DEFINE_SECTION(x) __attribute__((section(x)))
#elif defined (_MSC_VER)
#define ALIGN(X) __declspec(align(X))
#elif defined (__TASKING__) /* TASKING Compiler */
#define ALIGN(X) __align(X)
#define DEFINE_SECTION(x) __attribute__((section(x)))
#elif defined (__ARMCC_VERSION) /* Arm Compiler */
#define ALIGN(X) __ALIGNED(x)
#define DEFINE_SECTION(x) __attribute__((section(x)))
#elif defined (__ICCARM__) /* IAR Compiler */
#define ALIGN(x) __attribute__((aligned(x)))
#define DEFINE_SECTION(x) __attribute__((section(x)))
#elif defined (__clang__) /* LLVM/Clang Compiler */
#define ALIGN(X) __ALIGNED(x)
#define DEFINE_SECTION(x) __attribute__((section(x)))
#endif

#if defined(EI_MODEL_SECTION) && (defined(__GNUC__) || defined(__clang__))
#define MODEL_SECTION(X) __attribute__((section(STRINGIZE_VALUE_OF(X))))
#else
#define MODEL_SECTION(X)
#endif

#ifndef EI_MAX_SCRATCH_BUFFER_COUNT
#ifndef CONFIG_IDF_TARGET_ESP32S3
#define EI_MAX_SCRATCH_BUFFER_COUNT 14
#else
#define EI_MAX_SCRATCH_BUFFER_COUNT 28
#endif // CONFIG_IDF_TARGET_ESP32S3
#endif // EI_MAX_SCRATCH_BUFFER_COUNT

#ifndef EI_MAX_OVERFLOW_BUFFER_COUNT
#define EI_MAX_OVERFLOW_BUFFER_COUNT 10
#endif // EI_MAX_OVERFLOW_BUFFER_COUNT

using namespace tflite;
using namespace tflite::ops;
using namespace tflite::ops::micro;

namespace {

#if defined(EI_CLASSIFIER_ALLOCATION_STATIC_HIMAX) || defined(EI_CLASSIFIER_ALLOCATION_STATIC_HIMAX_GNU)
constexpr int kTensorArenaSize = 242592;
#else
constexpr int kTensorArenaSize = 241568;
#endif

#if defined(EI_CLASSIFIER_ALLOCATION_STATIC)
#if defined (EI_TENSOR_ARENA_LOCATION)
uint8_t tensor_arena[kTensorArenaSize] ALIGN(16) DEFINE_SECTION(STRINGIZE_VALUE_OF(EI_TENSOR_ARENA_LOCATION));
#else
uint8_t tensor_arena[kTensorArenaSize] ALIGN(16);
#endif
#elif defined(EI_CLASSIFIER_ALLOCATION_STATIC_HIMAX)
#pragma Bss(".tensor_arena")
uint8_t tensor_arena[kTensorArenaSize] ALIGN(16);
#pragma Bss()
#elif defined(EI_CLASSIFIER_ALLOCATION_STATIC_HIMAX_GNU)
uint8_t tensor_arena[kTensorArenaSize] ALIGN(16) __attribute__((section(".tensor_arena")));
#else
#define EI_CLASSIFIER_ALLOCATION_HEAP 1
uint8_t* tensor_arena = NULL;
#endif

static uint8_t* tensor_boundary;
static uint8_t* current_location;

template <int SZ, class T> struct TfArray {
  int sz; T elem[SZ];
};

enum used_operators_e {
  OP_CONV_2D, OP_DEPTHWISE_CONV_2D, OP_PAD, OP_ADD, OP_SOFTMAX,  OP_LAST
};

struct TensorInfo_t { // subset of TfLiteTensor used for initialization from constant memory
  TfLiteAllocationType allocation_type;
  TfLiteType type;
  void* data;
  TfLiteIntArray* dims;
  size_t bytes;
  TfLiteQuantization quantization;
};

typedef struct {
  TfLiteTensor tensor;
  int16_t index;
} TfLiteTensorWithIndex;

typedef struct {
  TfLiteEvalTensor tensor;
  int16_t index;
} TfLiteEvalTensorWithIndex;

TfLiteContext ctx{};
static const int MAX_TFL_TENSOR_COUNT = 4;
static TfLiteTensorWithIndex tflTensors[MAX_TFL_TENSOR_COUNT];
static const int MAX_TFL_EVAL_COUNT = 4;
static TfLiteEvalTensorWithIndex tflEvalTensors[MAX_TFL_EVAL_COUNT];
TfLiteRegistration registrations[OP_LAST];

namespace g0 {
const TfArray<4, int> tensor_dimension0 = { 4, { 1,96,96,1 } };
const TfArray<1, float> quant0_scale = { 1, { 0.0035832372959703207, } };
const TfArray<1, int> quant0_zero = { 1, { -128 } };
const TfLiteAffineQuantization quant0 = { (TfLiteFloatArray*)&quant0_scale, (TfLiteIntArray*)&quant0_zero, 0 };
const MODEL_SECTION(EI_MODEL_SECTION) ALIGN(16) int32_t tensor_data1[4*2] = { 
  0, 0, 
  0, 1, 
  0, 1, 
  0, 0, 
};
const TfArray<2, int> tensor_dimension1 = { 2, { 4,2 } };
const MODEL_SECTION(EI_MODEL_SECTION) ALIGN(8) int32_t tensor_data2[3] = { 23966, -40470, -35747, };
const TfArray<1, int> tensor_dimension2 = { 1, { 3 } };
const TfArray<3, float> quant2_scale = { 3, { 0.00021250579447951168, 0.00013631454203277826, 0.00015675056783948094, } };
const TfArray<3, int> quant2_zero = { 3, { 0,0,0 } };
const TfLiteAffineQuantization quant2 = { (TfLiteFloatArray*)&quant2_scale, (TfLiteIntArray*)&quant2_zero, 0 };
const MODEL_SECTION(EI_MODEL_SECTION) ALIGN(16) int8_t tensor_data3[3*1*1*32] = { 
  /* [0][0][][] */ 76,-14,60,-85,-11,34,-10,5,-24,60,0,-9,-30,-44,80,-29,-39,127,56,85,-76,-70,50,-42,-74,70,-61,12,66,11,-9,-23, 
  /* [1][0][][] */ 55,-29,-48,11,-31,127,-1,-11,127,-58,-7,-63,-51,113,27,-55,105,-103,1,-110,-107,-2,92,52,16,7,28,-30,-103,-35,-17,-10, 
  /* [2][0][][] */ -32,77,-57,66,68,-50,-7,107,84,4,115,-52,-77,-101,74,103,-73,-54,16,-92,73,104,-44,-80,74,-60,-9,-127,-20,-56,75,-3, 
};
const TfArray<4, int> tensor_dimension3 = { 4, { 3,1,1,32 } };
const TfArray<3, float> quant3_scale = { 3, { 0.0047147455625236034, 0.0030243333894759417, 0.003477735910564661, } };
const TfLiteAffineQuantization quant3 = { (TfLiteFloatArray*)&quant3_scale, (TfLiteIntArray*)&g0::quant2_zero, 0 };
const MODEL_SECTION(EI_MODEL_SECTION) ALIGN(16) int32_t tensor_data4[32] = { 9, -171, -1451, -45, -474, 253, -1454, 182, 265, 693, 123, -859, -1385, 728, -364, 114, 156, 629, -1159, -1186, -1596, -192, -999, -986, -389, 569, -953, 190, 752, -1385, -919, -1248, };
const TfArray<1, int> tensor_dimension4 = { 1, { 32 } };
const TfArray<32, float> quant4_scale = { 32, { 5.9281646827002987e-05, 5.3494204621529207e-05, 5.6653640058357269e-05, 5.0029280828312039e-05, 4.9038928409572691e-05, 5.4326155805028975e-05, 5.1900657126680017e-05, 4.8982637963490561e-05, 4.9717917136149481e-05, 6.5256994275841862e-05, 5.6696499086683616e-05, 6.498560105683282e-05, 5.2581195632228628e-05, 4.8563335440121591e-05, 5.0423037464497611e-05, 4.8859692469704896e-05, 5.6228185712825507e-05, 7.6104850450064987e-05, 5.051972038927488e-05, 5.6131619203370064e-05, 5.048650928074494e-05, 4.9630147259449586e-05, 5.8096895372727886e-05, 5.4209274821914732e-05, 4.8374033212894574e-05, 5.3393567213788629e-05, 5.41678600711748e-05, 5.8967281802324578e-05, 7.2391128924209625e-05, 5.3306852350942791e-05, 4.874397927778773e-05, 5.3765088523505256e-05, } };
const TfArray<32, int> quant4_zero = { 32, { 0,0,0,0,0,0,0,0,0,0,0,0,0,0,0,0,0,0,0,0,0,0,0,0,0,0,0,0,0,0,0,0 } };
const TfLiteAffineQuantization quant4 = { (TfLiteFloatArray*)&quant4_scale, (TfLiteIntArray*)&quant4_zero, 0 };
const MODEL_SECTION(EI_MODEL_SECTION) ALIGN(16) int8_t tensor_data5[32*1*1*96] = { 
  /* [0][0][][] */ -54,-12,19,-24,72,-29,-56,-127,15,-67,-115,-34,39,-40,-22,3,-52,-4,-61,-19,-36,-109,-38,78,-89,12,35,-34,74,4,-64,-67,81,-39,-70,50,-85,-93,-118,9,61,-64,-117,75,36,-92,23,-44,41,-65,-37,37,-103,0,-91,57,-1,45,33,-109,-80,69,-24,23,-44,16,51,78,27,36,40,-96,65,-79,1,57,-76,47,-51,-13,-11,-6,34,-40,-101,-1,-103,89,12,56,-5,-100,0,60,-4,-14, 
  /* [1][0][][] */ -66,36,-118,-46,-47,33,-3,34,49,-101,-98,72,50,-24,33,58,118,-19,53,106,-35,-4,32,-15,24,14,-26,80,20,11,53,-84,27,62,3,0,59,60,5,-58,-82,-42,-70,-82,-70,-26,-3,-27,-5,-83,70,22,-3,74,-92,-51,12,75,15,39,-48,70,-33,-83,-55,-6,84,34,93,-34,5,12,-85,80,-30,27,40,-36,-22,63,-113,48,-22,-127,11,106,-81,-37,75,84,82,-19,47,47,-24,-22, 
  /* [2][0][][] */ 0,-4,-75,38,-51,-83,31,41,-108,30,-62,57,38,-41,32,-117,-75,-56,-4,9,-107,-32,49,0,-52,24,46,-25,-84,26,22,36,-84,-51,-103,-113,-98,42,46,-57,-127,-93,-23,-39,-103,53,-48,-88,49,-1,33,-97,-71,16,-22,-16,-90,36,-85,-24,-47,10,-61,16,35,-1,7,36,-104,21,-22,-91,-6,-87,-8,-14,-74,-49,-30,-23,-6,-104,-45,-72,-21,-107,-52,-55,34,52,-49,-31,-72,-93,-75,-76, 
  /* [3][0][][] */ 37,25,4,-43,-53,58,-85,58,4,8,56,7,70,56,67,16,100,111,-55,26,99,-120,-44,-118,-22,-91,-57,107,39,-68,90,18,-60,-27,-11,-27,-57,-41,52,63,-15,-76,-78,25,76,9,-35,-61,89,-119,54,-3,90,42,90,-112,-124,-84,-87,-65,-71,45,-4,71,60,-17,-34,-23,-22,-69,-28,102,25,-112,59,-42,32,106,101,-49,-88,-127,59,85,-14,54,-44,-87,-60,63,3,-92,70,-100,-63,-17, 
  /* [4][0][][] */ 38,88,-37,6,-29,-40,23,18,11,52,-17,12,11,-56,-13,-57,-1,3,-45,9,81,-111,65,14,-39,-16,62,-59,-46,28,-55,-49,43,94,3,-110,-50,-26,-111,41,-77,-66,-122,-78,27,90,7,50,28,-91,-31,-121,-92,42,-90,7,-16,-81,-8,-11,5,-66,-28,-72,-49,44,11,-30,19,-127,-109,-88,-58,10,80,38,50,-19,-18,-60,-28,-86,-95,-66,-19,64,60,4,-118,-70,35,0,4,88,-113,-53, 
  /* [5][0][][] */ 65,-41,53,61,43,-73,37,18,28,-86,9,-58,5,13,5,38,49,54,-102,55,8,-16,16,-16,-124,-44,2,-53,9,40,27,-65,-25,14,-84,25,-126,-103,40,33,-54,-29,58,104,-6,42,-41,-122,-73,50,45,37,45,33,42,-41,74,54,-19,-20,35,-36,16,-47,-9,97,-46,27,61,11,18,-37,-47,5,-23,-52,21,-8,-10,6,88,29,13,95,-127,44,-5,-23,25,-117,45,88,-16,30,77,-127, 
  /* [6][0][][] */ -8,-61,60,29,-100,-62,-25,20,-7,-89,-19,-92,38,20,73,-127,34,-21,-22,53,-85,-71,56,21,-73,-101,-27,-80,-56,-120,13,-85,-92,-122,-71,-116,-31,0,-123,45,48,15,-13,-37,-78,67,-94,-62,-66,-8,-56,-41,18,-66,56,2,-7,-29,-87,70,-101,-21,34,-88,-76,32,50,-62,34,-28,-111,-36,13,-85,-108,-56,-57,-62,-80,-43,-6,-42,7,-43,-82,-56,-55,-100,35,48,52,-12,-61,-25,40,-50, 
  /* [7][0][][] */ 81,77,-52,-70,-49,85,-6,27,73,7,-83,16,47,-92,54,75,63,40,17,112,49,11,2,58,-68,103,47,58,-62,107,-3,36,14,26,66,87,-74,77,10,-17,92,-68,0,77,44,-45,107,-83,72,-82,-84,-127,-15,93,13,11,102,-67,7,-63,14,10,93,-88,-50,-41,83,30,-82,-56,39,90,84,22,65,54,-59,57,-74,43,66,-90,6,-79,51,44,-108,98,85,26,81,44,-50,-32,3,-89, 
  /* [8][0][][] */ -3,53,-50,-86,66,43,-44,5,-40,43,48,89,-1,-73,-66,-51,-52,108,-53,20,21,-59,78,89,-127,94,55,81,-67,35,-58,119,83,-14,35,4,113,-21,4,82,94,104,-79,-74,12,-14,-28,97,52,-113,-32,11,-40,18,-9,-114,30,113,-61,98,108,60,51,109,-12,-21,-1,97,-64,44,-9,21,75,41,21,25,-31,113,83,54,29,72,-75,-61,-22,46,65,-27,40,-18,-76,105,-65,-78,-19,6, 
  /* [9][0][][] */ 39,-35,113,42,62,-66,-30,-62,69,48,11,36,-10,5,-58,29,2,-9,7,-58,31,94,1,-79,106,11,-20,6,25,-24,-32,67,31,6,46,-7,-58,69,24,-44,37,-15,44,-84,48,44,-11,75,40,39,-52,-23,98,-74,-32,97,80,-45,70,14,-72,61,73,-28,-29,4,80,32,-18,60,127,-56,12,97,-53,-42,-43,-116,-30,89,41,40,91,45,41,-63,69,39,106,48,19,69,82,7,71,47, 
  /* [10][0][][] */ -66,77,54,-75,-3,67,90,45,3,25,18,-48,73,49,-16,17,-14,82,-62,-39,-14,6,48,-74,17,52,-81,-79,-34,72,-59,-58,58,80,95,55,-16,2,-9,34,-19,85,-127,-14,-73,-78,11,-34,20,-29,38,-44,52,30,-49,-40,-74,-2,26,-57,4,73,104,40,97,-51,-54,-10,27,-63,-88,-38,73,44,-53,83,-15,52,62,19,46,-57,62,64,-98,62,65,-6,38,24,0,-61,-36,-35,-30,-79, 
  /* [11][0][][] */ 55,-13,-30,49,56,9,14,2,124,42,-72,53,-20,-57,1,-64,-58,-88,103,6,2,51,-5,-94,-22,-82,-34,25,34,-26,-4,-34,-78,-68,21,11,-63,42,-40,-60,-39,48,-69,-18,-49,-60,0,8,73,52,52,12,-83,-81,-10,-1,-65,-58,-40,-80,-74,37,36,-15,-3,36,-57,-1,38,23,4,-69,8,127,-86,13,-66,1,-47,76,-91,-37,11,-50,23,-74,-11,-5,-71,43,-10,-88,-77,-38,-68,-43, 
  /* [12][0][][] */ -21,23,-73,-25,38,-25,-63,0,-96,15,-46,-18,-69,-15,9,-96,-112,-62,-63,-98,-11,-16,-22,48,-87,-73,50,-113,44,-23,-63,62,-102,-90,-71,-15,-33,-84,-45,-2,62,1,-125,-66,-51,-100,-48,69,-71,-122,-94,60,-4,-32,-101,38,-36,-83,9,26,15,59,-35,10,60,-6,-67,65,17,62,1,25,37,69,-45,-37,-63,-6,-127,-106,-78,58,9,-21,-54,-8,9,65,-106,-116,45,1,54,-43,-12,39, 
  /* [13][0][][] */ 90,-4,91,89,100,125,92,62,38,-78,27,-19,90,29,75,-19,-107,-57,-94,22,71,-62,123,-29,-56,50,18,49,-96,-50,93,51,59,110,-24,56,-67,-87,41,84,-34,89,-10,47,-12,57,-68,-44,28,62,5,-75,-63,58,108,-93,-50,45,17,-53,-10,127,-71,28,-18,-32,-64,92,-22,8,47,28,-64,19,-39,-27,-72,93,103,-40,61,-81,119,35,-127,-87,87,92,8,-32,-55,70,104,-30,87,-70, 
  /* [14][0][][] */ -74,-86,55,39,61,-33,-14,-83,-111,-34,54,58,-42,-92,-92,-84,-80,-59,-20,7,-55,-3,-7,16,-119,-61,-50,19,-117,-104,-60,28,75,-26,-38,1,79,82,34,-101,6,-113,13,81,46,-125,44,-85,48,-1,67,16,80,-24,-17,-22,-47,3,40,76,-28,-71,-34,59,-85,-14,65,-106,-87,-112,-113,86,-5,50,41,-76,28,-119,47,22,26,-50,-92,-39,-127,-93,-108,81,97,13,62,-43,64,45,-5,16, 
  /* [15][0][][] */ 2,-9,-21,46,89,-102,28,-50,27,-33,-51,19,94,1,-65,-84,127,25,-48,36,46,16,75,66,73,64,48,88,36,63,50,-111,-18,-4,-42,0,-36,116,118,-54,-16,66,-88,-15,-12,-105,-10,-48,8,-79,8,29,-77,-83,-64,-22,69,55,-55,94,-14,-80,26,84,-18,79,-33,8,-34,-37,44,-54,25,-1,67,-91,-14,56,109,80,-71,44,-65,-72,-122,-17,-84,52,93,88,-86,-60,39,105,-104,83, 
  /* [16][0][][] */ -58,-2,72,-44,43,107,-23,3,25,47,-72,61,-25,-87,-67,-52,80,57,6,23,68,11,-27,49,-43,40,-53,70,-127,5,48,27,-69,74,11,58,-54,-14,-50,-44,37,-17,90,96,72,109,38,-43,-48,-108,34,101,-16,97,69,16,12,75,80,24,99,103,2,59,60,32,-64,68,35,96,-52,-3,9,36,36,73,12,90,-99,-31,18,-57,21,24,-40,55,82,-19,38,-16,-42,106,58,-11,-41,-28, 
  /* [17][0][][] */ 57,-74,68,98,-22,-73,-38,-74,52,9,56,26,75,77,-60,25,16,22,87,70,-43,29,8,-32,31,57,-47,5,69,-44,-18,51,-11,0,31,40,-37,99,-48,-45,-42,-13,-33,-24,6,11,94,-41,35,127,9,-1,-9,36,60,3,-10,38,-47,-67,9,-53,40,65,-31,-46,25,-51,-48,5,92,17,10,-47,-39,46,71,-38,17,-35,35,40,-44,-52,-20,43,55,-23,4,37,-43,-81,20,50,5,80, 
  /* [18][0][][] */ -81,86,63,-85,-33,-117,-112,31,-34,34,-72,-66,-50,6,24,-21,-2,0,73,-25,76,-81,14,-100,-25,-115,6,66,-6,8,-16,15,3,-47,-107,-122,-51,-23,-7,68,-64,-28,-69,-19,-120,10,17,13,35,-46,22,-1,-103,-30,-24,62,-67,35,-38,-125,63,69,14,13,-83,-127,-42,45,32,-92,-79,78,-102,-57,-54,-121,23,4,2,-74,-80,-32,-3,-88,90,-34,52,79,-109,-75,-99,65,48,-76,15,-59, 
  /* [19][0][][] */ 3,-7,35,4,28,-30,56,41,126,-66,-5,-34,-104,0,-65,15,83,-109,61,16,-31,39,-74,62,33,-81,-11,-71,-81,-113,-74,44,45,-79,1,-26,-19,-89,-70,-97,30,-98,-101,-20,-21,-2,35,-106,-11,9,-53,55,-52,-14,-27,51,4,44,-26,-42,35,-50,47,26,-78,-5,-49,-23,-26,46,40,-64,-70,-127,-71,-77,72,-86,-23,50,17,-74,-53,59,-95,-6,-8,-32,42,-4,-28,21,-30,93,40,-54, 
  /* [20][0][][] */ -30,70,24,54,-115,49,-23,85,7,-30,-127,-24,-3,90,37,-66,-70,-14,-7,-8,26,-11,-75,-102,76,-84,-91,16,19,16,-67,65,61,2,2,19,68,-1,9,-109,-113,-61,-105,-118,-53,-79,-22,121,60,-123,-122,11,-14,70,10,-23,60,23,44,44,54,-81,-31,-70,-59,-89,-23,-26,-108,-79,-43,60,-34,-58,42,-25,64,54,118,117,31,-19,111,-62,66,93,-54,84,40,116,35,20,-8,-1,-48,-19, 
  /* [21][0][][] */ 50,84,26,-127,88,-74,72,35,-47,-59,-77,17,-10,7,-45,-76,-96,0,22,-6,85,-80,65,-101,40,-66,-32,75,8,13,-1,-15,-11,21,-79,-106,111,64,-92,-22,3,5,-4,3,-89,-112,-62,85,9,-117,2,50,29,68,-102,-9,-60,53,-42,76,42,-60,36,-9,73,33,-17,-59,-89,-43,16,76,30,-39,66,48,-104,-18,67,90,-10,42,50,-75,-20,-76,34,-66,-83,85,91,-109,-61,-77,58,-87, 
  /* [22][0][][] */ -1,-60,-84,-103,40,-76,53,44,-85,38,-81,-102,61,-78,-109,-87,1,39,-98,-69,44,-61,2,-4,105,-8,-111,53,-61,-80,-89,-121,14,25,-9,10,-21,-10,-66,-127,-23,-28,-18,45,8,-68,68,23,-42,-89,-18,-21,-72,-90,-68,9,-2,-52,3,-42,56,-84,-78,-118,-71,-8,-108,-57,57,49,-28,-27,-72,16,25,-91,11,-57,26,49,52,-99,-48,-92,66,48,63,-47,-61,9,-62,10,-23,20,-48,85, 
  /* [23][0][][] */ 5,-92,-8,-17,63,-127,11,-117,64,-71,68,53,-14,-113,-6,-68,27,-54,-120,55,58,-83,58,7,-26,-41,40,-4,30,12,60,-86,-39,6,-10,-10,48,-36,-126,-34,-101,-46,21,-113,-61,-54,54,-13,43,-93,-83,-13,49,-72,-72,34,-54,-74,48,65,-73,-102,-75,-57,-2,25,-126,-119,12,-63,75,-82,-38,-58,-64,-94,51,-20,48,67,-55,-52,-15,-56,47,-13,42,-46,-99,2,55,17,24,-42,-16,40, 
  /* [24][0][][] */ -86,-37,-124,-79,-77,-88,-55,-77,6,93,71,62,89,23,-42,-100,-61,55,-28,-51,71,-122,-51,-61,4,-27,75,47,82,51,25,-47,-16,9,33,5,-45,-127,61,-3,-56,-83,97,18,25,-37,-1,50,-58,-87,-22,-4,63,65,78,-84,-28,79,29,-13,83,3,46,89,-90,88,-37,-79,-93,54,-85,-21,-39,-30,82,86,50,-64,-96,-90,-90,-104,-71,-115,-32,62,-10,-87,12,-95,-5,-66,-24,11,-81,-41, 
  /* [25][0][][] */ -69,-54,-37,0,77,-55,-71,24,67,-83,-12,1,64,6,-70,6,-83,30,46,-98,67,127,-20,-36,7,-48,-60,35,64,-72,34,102,82,-79,30,78,59,-48,-3,-18,-57,90,-70,14,93,79,44,26,-100,73,-21,15,50,-19,-51,20,-17,49,-72,75,104,46,14,43,19,72,-13,0,-52,-16,2,-86,22,-103,66,29,72,45,-3,4,63,35,-69,72,-16,-44,-87,-74,-26,-59,78,26,-102,14,4,-7, 
  /* [26][0][][] */ 74,-115,-38,-9,-102,28,-27,-31,-77,-127,79,100,-83,-75,-11,-32,96,7,-86,-78,-2,51,66,-22,6,23,-1,13,-14,-18,-77,3,-53,-71,-100,-112,-80,38,-62,100,-99,53,113,12,-50,78,-65,54,-40,-5,-20,91,-8,-60,5,-99,64,48,21,28,7,-95,31,-32,67,-34,-68,22,-84,110,40,57,39,-107,-90,-11,35,-109,-97,-23,-27,86,45,-47,41,-25,-7,-12,-94,61,-22,39,-48,72,44,21, 
  /* [27][0][][] */ 86,-18,-46,-60,-99,-9,-37,-50,70,73,35,-85,-13,61,81,-15,103,8,36,-75,-39,23,-1,-19,-64,25,-68,-15,63,5,-16,44,45,68,-62,-71,-105,-67,-110,78,-59,25,-12,5,104,73,43,56,75,127,29,-14,-94,-51,30,41,70,6,-104,-15,4,-30,-16,32,22,-7,-96,90,61,20,-61,-17,23,-37,-25,-21,77,-61,58,72,52,58,63,-35,-27,11,16,125,-64,-23,-19,-30,61,48,63,86, 
  /* [28][0][][] */ 91,-33,102,53,-75,-40,-63,-24,10,-61,42,52,-28,10,39,105,80,56,16,67,6,56,4,-38,-23,53,-11,-43,8,-35,10,-10,-66,15,86,41,15,1,21,15,53,39,-48,19,-72,36,68,95,-14,6,-64,-35,-30,0,41,71,30,-9,127,42,11,-35,-46,15,58,37,42,61,-19,27,-16,-33,56,86,31,-43,-44,-51,-38,86,-24,-21,100,-42,99,-3,68,27,-36,-2,50,-46,-29,74,-85,49, 
  /* [29][0][][] */ 14,14,19,-73,-102,-21,-127,-23,78,-44,-102,-106,61,-93,-65,-66,-110,50,1,-82,-88,-11,11,-18,-56,-27,-64,-51,-112,-36,49,-34,18,-29,-93,-72,-38,58,-37,42,6,55,-71,36,-32,56,-69,-46,-15,-28,17,-100,25,-108,56,14,-103,12,-74,65,-124,46,-105,-75,-79,-81,14,44,49,-104,18,-90,61,40,20,-11,64,-82,-53,1,-36,-93,-41,-98,43,63,2,37,-59,49,30,32,-117,-13,-35,36, 
  /* [30][0][][] */ -2,-57,-70,4,-90,20,-58,-17,91,-36,-6,-46,-113,-13,28,8,-14,29,56,-106,17,-110,-105,3,-98,-4,-67,103,-26,-95,-84,-11,-94,-82,-127,-69,14,-41,-11,22,77,-70,-17,88,82,-49,64,43,-62,33,14,-92,80,-45,-22,66,-83,-53,-72,-55,-92,-3,-65,-29,-101,-82,-101,60,-71,74,13,-41,-95,76,29,-81,-52,-63,-70,-63,9,-5,-102,-19,-108,22,-107,93,-39,-106,42,40,-52,-15,6,-86, 
  /* [31][0][][] */ 36,-103,5,57,15,28,-72,-103,-51,-42,-87,-92,52,-127,-66,62,-72,-98,7,11,22,6,-51,59,4,-118,5,5,-86,-86,15,63,-12,-8,-102,-33,49,-49,-79,-112,25,-79,-47,0,-19,-66,-58,-6,35,-13,51,-46,-117,-73,-87,-3,-117,30,-20,67,-55,-26,43,-83,32,65,-63,-90,34,-118,-123,-17,-105,-56,-25,-20,-72,-66,11,41,-86,-56,17,36,22,50,-98,-14,-17,-72,-98,-67,-17,56,-27,-42, 
};
const TfArray<4, int> tensor_dimension5 = { 4, { 32,1,1,96 } };
const TfArray<32, float> quant5_scale = { 32, { 0.0025194699410349131, 0.0022735036909580231, 0.0024077796842902899, 0.0021262443624436855, 0.0020841544028371572, 0.0023088615853339434, 0.0022057779133319855, 0.0020817620679736137, 0.0021130114328116179, 0.0027734222821891308, 0.0024096011184155941, 0.0027618878521025181, 0.0022347008343786001, 0.0020639416761696339, 0.0021429790649563074, 0.0020765368826687336, 0.0023896978236734867, 0.0032344560604542494, 0.0021470880601555109, 0.0023855937179177999, 0.0021456766407936811, 0.0021092812530696392, 0.0024691179860383272, 0.0023038941435515881, 0.0020558964461088181, 0.0022692265920341015, 0.0023021339438855648, 0.0025061094202101231, 0.003076622961089015, 0.0022655411157757044, 0.0020716190338134766, 0.0022850162349641323, } };
const TfLiteAffineQuantization quant5 = { (TfLiteFloatArray*)&quant5_scale, (TfLiteIntArray*)&g0::quant4_zero, 0 };
const MODEL_SECTION(EI_MODEL_SECTION) ALIGN(16) int32_t tensor_data6[96] = { 1724, -315, 4214, 5956, 5168, -3018, 4698, -2331, -3249, -1106, 7081, -3938, 4845, 8212, 1914, 2709, -246, -339, -1608, 4527, 2446, -96, 1520, -605, -465, 3542, 1118, 2875, 5333, 1684, 5441, 1046, 2256, 6195, 5656, 2345, -536, 3450, 3171, -5581, -1035, 1720, 1070, 1426, -1182, 429, -3544, 732, -7978, 2216, 746, -5177, 7069, -926, 2886, 1457, 901, 3796, -1104, -3549, 314, 971, 261, 4644, 4529, 3455, 2550, 5421, 3748, -1113, 3299, 5231, 4203, -2755, 6953, 8209, 300, -4124, 570, 1359, 13971, 1965, -694, -2166, 1412, 303, 1411, -2885, 4157, -868, 4447, 1179, -42, -4020, -249, 1817, };
const TfArray<1, int> tensor_dimension6 = { 1, { 96 } };
const TfArray<96, float> quant6_scale = { 96, { 0.00011213624384254217, 0.00020588870393112302, 0.00013516927720047534, 0.00012255884939804673, 0.00012033231905661523, 0.00013749839854426682, 9.8379554401617497e-05, 0.00013952897279523313, 0.00013435859000310302, 0.00022557782358489931, 9.8438249551691115e-05, 0.00011955627996940166, 0.00011079024261562154, 7.4759656854439527e-05, 0.00012076979328412563, 0.0001796874130377546, 0.00024667615070939064, 0.00019727052131202072, 0.00019294836965855211, 0.00013290252536535263, 0.00016692730423528701, 0.00019741566211450845, 0.00019072933355346322, 0.00022392928076442331, 0.00022349132632371038, 0.00017414230387657881, 0.00014059881505090743, 0.00012119703751523048, 0.0001356941502308473, 0.00021448878396768123, 7.5245217885822058e-05, 0.00014707527589052916, 0.00013554090401157737, 0.00010232993372483179, 0.00012107683869544417, 0.00021400378318503499, 0.00019329848873894662, 0.00013062688231002539, 9.6844531071837991e-05, 8.6470834503415972e-05, 0.00015122767945285887, 0.0001166189176728949, 0.00012569644604809582, 0.00015208566037472337, 0.00017888568982016295, 0.00014587845362257212, 9.8547949164640158e-05, 0.00010483842925168574, 9.3668910267297179e-05, 0.00015649934357497841, 0.00018800399266183376, 0.00010695045057218522, 8.5681203927379102e-05, 0.00017961086996365339, 0.000107810519693885, 0.0001457987236790359, 0.00020625580509658903, 9.7734759037848562e-05, 0.00019326899200677872, 0.00012428224727045745, 0.00012490639346651733, 0.00017107218445744365, 0.00037092779530212283, 0.0001366504147881642, 0.00012381510168779641, 0.00010554436448728666, 0.00013812420365866274, 0.00011666643695207313, 0.00016488661640323699, 0.00012426395551301539, 0.00011716906010406092, 0.00013023825886193663, 8.8536602561362088e-05, 0.00011105783778475598, 9.566579683450982e-05, 9.1083311417605728e-05, 0.00018196112068835646, 0.00013949528511147946, 0.00019966937543358654, 0.00013467691314872354, 6.163620128063485e-05, 0.00010755370021797717, 0.00015181970957200974, 0.00018310280574951321, 0.0001930108992382884, 0.00015220517525449395, 0.00018043456657323986, 0.00015969401283655316, 0.00014925912546459585, 0.00015562784392386675, 0.00010767456114990637, 0.00019941150094382465, 0.00018971646204590797, 0.00011799155618064106, 0.00020117276289965957, 0.00016483762010466307, } };
const TfArray<96, int> quant6_zero = { 96, { 0,0,0,0,0,0,0,0,0,0,0,0,0,0,0,0,0,0,0,0,0,0,0,0,0,0,0,0,0,0,0,0,0,0,0,0,0,0,0,0,0,0,0,0,0,0,0,0,0,0,0,0,0,0,0,0,0,0,0,0,0,0,0,0,0,0,0,0,0,0,0,0,0,0,0,0,0,0,0,0,0,0,0,0,0,0,0,0,0,0,0,0,0,0,0,0 } };
const TfLiteAffineQuantization quant6 = { (TfLiteFloatArray*)&quant6_scale, (TfLiteIntArray*)&quant6_zero, 0 };
const MODEL_SECTION(EI_MODEL_SECTION) ALIGN(16) int8_t tensor_data7[96*1*1*16] = { 
  /* [0][0][][] */ -21,119,-118,56,41,-54,119,104,-32,-7,32,-111,96,127,-97,29, 
  /* [1][0][][] */ -31,-16,-41,-41,4,26,25,-127,23,-29,-37,-60,-18,-39,-48,-12, 
  /* [2][0][][] */ -20,-22,16,67,14,25,-114,127,-2,1,55,-68,-13,-77,-49,62, 
  /* [3][0][][] */ 75,-119,109,15,34,-32,-23,127,-6,89,64,48,-23,59,-19,-14, 
  /* [4][0][][] */ -41,-16,-29,42,-127,10,-36,-108,27,-32,10,-38,36,64,100,115, 
  /* [5][0][][] */ 115,37,-32,-40,-115,-5,32,71,20,-24,50,126,127,28,-93,32, 
  /* [6][0][][] */ 8,-48,-57,-69,-67,-5,9,-63,-69,-56,4,33,68,52,127,-2, 
  /* [7][0][][] */ -33,29,-27,-49,4,-67,-83,33,-94,45,-63,-27,-127,-22,16,75, 
  /* [8][0][][] */ 52,55,71,0,62,19,83,6,92,-29,55,10,-127,-36,-80,16, 
  /* [9][0][][] */ -18,66,27,-20,-12,-15,31,-2,-46,49,-30,15,27,127,18,14, 
  /* [10][0][][] */ 111,89,-86,65,-64,-35,31,-33,-59,-67,-53,-110,-118,-96,11,127, 
  /* [11][0][][] */ 58,26,55,10,-19,-49,-13,107,-75,22,-65,-20,-20,-21,59,127, 
  /* [12][0][][] */ -57,-20,6,-17,3,-9,127,36,-60,47,-20,-44,-28,76,-43,97, 
  /* [13][0][][] */ -8,19,24,19,74,-12,94,65,2,127,-109,-69,56,38,-115,-28, 
  /* [14][0][][] */ -100,127,18,11,29,23,90,26,-55,39,95,-22,-119,45,-76,31, 
  /* [15][0][][] */ -6,-2,-127,-50,82,-35,-77,-33,-51,-23,-7,-65,16,-79,-40,65, 
  /* [16][0][][] */ 103,14,-1,-20,22,-37,37,-44,-26,-6,127,56,56,-19,-42,18, 
  /* [17][0][][] */ 15,21,-57,-127,-30,-88,95,-125,41,-25,-42,47,55,65,23,68, 
  /* [18][0][][] */ 38,127,7,-32,69,-49,6,-34,-58,94,15,2,-2,68,4,-40, 
  /* [19][0][][] */ -77,-101,75,-110,16,-127,22,-52,48,24,78,68,45,-17,55,-16, 
  /* [20][0][][] */ -31,80,28,-13,-3,-15,12,-37,79,1,103,3,-127,-40,-87,0, 
  /* [21][0][][] */ -50,32,11,11,59,48,76,23,-127,26,-10,17,-2,42,-48,-13, 
  /* [22][0][][] */ 17,-73,15,23,8,-127,72,27,36,-42,-52,-77,24,-78,-50,-61, 
  /* [23][0][][] */ -64,-84,43,39,25,0,8,-43,10,-30,74,-7,12,68,99,127, 
  /* [24][0][][] */ -6,-18,25,68,14,16,-54,-127,64,17,-43,5,15,-17,-13,-10, 
  /* [25][0][][] */ -24,68,9,-74,-32,-25,-2,-42,-24,80,-38,-29,50,127,51,23, 
  /* [26][0][][] */ -44,79,7,28,45,-69,2,-15,29,30,24,82,-22,11,-52,127, 
  /* [27][0][][] */ -36,-127,-44,-14,-83,85,-4,-78,25,-23,39,-60,33,-58,-100,-24, 
  /* [28][0][][] */ -19,0,52,108,40,9,-34,-127,-107,52,96,4,63,3,-48,-45, 
  /* [29][0][][] */ -127,81,-11,-54,-21,28,-106,-83,-41,-23,-10,-16,0,-54,-95,46, 
  /* [30][0][][] */ 94,59,-89,113,-101,-122,-127,20,-34,-3,20,-103,102,54,13,99, 
  /* [31][0][][] */ 127,11,-67,-34,-69,52,120,70,-67,6,47,29,33,55,-15,-8, 
  /* [32][0][][] */ -45,-13,127,-17,-39,71,86,4,-9,18,-22,1,15,54,59,43, 
  /* [33][0][][] */ -27,28,-111,-92,-54,0,114,14,41,-24,-6,-89,127,119,-66,82, 
  /* [34][0][][] */ -90,4,63,2,8,-69,60,-17,-127,29,27,-48,70,37,-52,-13, 
  /* [35][0][][] */ -36,32,-50,-14,-77,101,-30,-34,25,127,-27,37,-68,39,29,36, 
  /* [36][0][][] */ -18,-77,127,-53,-49,12,-42,-17,-1,37,-75,67,-8,-81,-25,35, 
  /* [37][0][][] */ 65,-6,61,-28,50,-58,-45,22,-59,127,-78,-19,-84,-39,98,-9, 
  /* [38][0][][] */ 52,20,34,-87,-8,-28,-127,74,-101,82,-127,-58,-125,-111,-102,62, 
  /* [39][0][][] */ -83,33,-95,-36,-125,-99,65,32,-117,-68,38,127,51,0,-3,89, 
  /* [40][0][][] */ 114,54,36,-127,-51,39,9,-56,-59,23,-37,-94,45,54,68,35, 
  /* [41][0][][] */ 86,-101,-103,-79,-19,-11,-82,-28,82,-15,-36,-104,127,-102,76,-15, 
  /* [42][0][][] */ -4,-87,-56,127,-14,-121,-97,15,21,-12,27,72,-68,64,-98,9, 
  /* [43][0][][] */ -75,-36,-60,-104,-68,4,-2,87,46,-127,-24,42,-18,-34,-10,104, 
  /* [44][0][][] */ -30,75,20,-48,-49,-31,5,92,113,-76,43,94,127,46,12,22, 
  /* [45][0][][] */ 36,44,-73,102,107,-77,-54,-44,127,-57,23,-48,-38,11,-70,37, 
  /* [46][0][][] */ -1,-13,4,10,127,-9,60,38,-27,109,-10,-110,65,94,-48,79, 
  /* [47][0][][] */ 107,-34,-33,-2,89,-14,-72,-49,0,127,-41,34,-2,-94,-74,5, 
  /* [48][0][][] */ 8,38,-11,-115,6,-42,127,-116,-6,5,-23,38,44,55,-16,18, 
  /* [49][0][][] */ -32,123,-64,23,41,-58,64,69,-1,28,4,-87,-9,57,127,-90, 
  /* [50][0][][] */ 22,51,-16,11,-127,15,-75,-49,63,87,54,43,-56,-31,15,27, 
  /* [51][0][][] */ 127,-17,-64,-11,-41,65,-98,-49,48,-18,-53,91,-51,-64,1,41, 
  /* [52][0][][] */ -26,-58,54,49,-24,-96,-127,-19,-53,-21,-55,-86,-2,-46,13,43, 
  /* [53][0][][] */ 5,67,28,-127,-15,76,62,-26,11,-18,-16,-33,80,-90,14,42, 
  /* [54][0][][] */ 28,78,-15,-8,-14,-106,-91,67,31,-27,-46,127,80,91,-11,67, 
  /* [55][0][][] */ -48,-29,86,59,80,-18,124,127,-108,8,35,18,114,81,-2,-25, 
  /* [56][0][][] */ 127,50,0,25,-53,99,-69,-72,5,44,-84,4,-56,81,-3,48, 
  /* [57][0][][] */ -49,-40,-91,-50,-126,-127,77,6,-112,-61,62,69,22,67,1,69, 
  /* [58][0][][] */ 41,-51,67,18,22,-47,-34,-14,20,4,-127,-26,8,-29,-14,32, 
  /* [59][0][][] */ 68,21,-103,108,28,24,95,-33,-88,-22,13,-111,-127,-38,35,83, 
  /* [60][0][][] */ 24,52,-28,47,-30,-44,-30,30,-30,-83,56,118,-41,-127,-56,5, 
  /* [61][0][][] */ -32,4,71,-82,-75,65,14,127,20,-80,22,39,68,22,34,89, 
  /* [62][0][][] */ 61,36,-19,-127,-27,-10,3,-45,10,17,-22,46,46,-23,-63,-60, 
  /* [63][0][][] */ 1,-20,-19,-18,-87,-68,-52,23,-42,-24,-40,-23,127,-1,52,-8, 
  /* [64][0][][] */ 31,-27,-1,60,-58,-19,-29,-57,72,127,38,7,3,-29,-21,67, 
  /* [65][0][][] */ -15,18,-31,-1,-67,82,28,-7,54,-122,110,-53,53,81,-127,47, 
  /* [66][0][][] */ -74,95,-56,-41,56,7,-111,-27,-127,121,67,-8,-108,-22,83,29, 
  /* [67][0][][] */ 2,-33,-127,-104,68,84,14,-17,-13,-3,47,-23,21,44,23,40, 
  /* [68][0][][] */ 59,32,-10,-26,-41,54,28,49,-65,61,127,1,-38,-25,-103,-10, 
  /* [69][0][][] */ 79,-87,37,-20,13,-117,-59,127,23,55,62,76,-13,45,-43,-2, 
  /* [70][0][][] */ 55,1,127,69,99,-33,88,13,70,68,-85,20,-118,70,-14,4, 
  /* [71][0][][] */ -3,18,106,-89,-127,-83,11,-1,-25,5,2,-118,-87,-3,-4,17, 
  /* [72][0][][] */ -68,-90,35,-127,82,13,25,38,-67,33,-118,-47,46,114,-61,88, 
  /* [73][0][][] */ 9,13,66,-17,115,-70,-38,-5,-20,127,-120,9,-110,-54,95,-50, 
  /* [74][0][][] */ -115,-13,-127,-86,64,-61,-51,20,-79,35,-125,-37,-80,-67,-31,64, 
  /* [75][0][][] */ 87,-17,54,-64,32,-1,-127,-37,5,-87,72,-4,5,-21,3,-11, 
  /* [76][0][][] */ 3,-27,-17,127,56,75,89,-31,55,-80,37,88,9,-49,-66,12, 
  /* [77][0][][] */ -60,-46,102,-47,18,-28,-4,-127,15,30,40,66,41,29,0,14, 
  /* [78][0][][] */ -75,-16,0,-61,-30,-76,12,-25,17,9,11,-100,-93,-86,-127,-49, 
  /* [79][0][][] */ -127,-86,-31,4,126,12,-45,6,19,62,-14,53,-44,-98,-76,-26, 
  /* [80][0][][] */ 3,-98,14,83,-53,-52,-127,80,22,10,56,2,-59,-23,-29,83, 
  /* [81][0][][] */ 127,83,-21,111,18,25,-2,117,13,35,91,65,106,61,73,-50, 
  /* [82][0][][] */ -44,8,19,-18,36,-127,-123,-74,16,60,-60,-23,-26,115,-100,-35, 
  /* [83][0][][] */ 91,-21,58,-26,-53,-18,-100,10,28,-127,-16,-47,-2,-6,-1,-8, 
  /* [84][0][][] */ -8,-68,-89,9,99,44,53,17,-127,8,-65,7,50,7,-70,36, 
  /* [85][0][][] */ -2,79,44,-72,100,-22,41,-127,106,-26,22,7,110,-74,-2,-15, 
  /* [86][0][][] */ 127,-41,117,66,-9,-71,61,75,-42,-57,-115,-59,37,0,-62,13, 
  /* [87][0][][] */ 5,0,30,-55,72,-15,-48,25,45,-32,46,-43,-90,-127,3,6, 
  /* [88][0][][] */ -64,-25,38,-20,0,26,-57,-58,-19,1,-65,-127,-32,-38,-1,-9, 
  /* [89][0][][] */ -84,1,16,-69,15,2,-127,23,92,40,-88,-1,-31,-102,-60,-45, 
  /* [90][0][][] */ -8,-15,-26,-64,127,11,-52,47,47,64,13,-13,19,26,-72,-43, 
  /* [91][0][][] */ -41,-62,-9,43,-78,-16,-15,81,11,-85,18,-37,-11,60,-10,127, 
  /* [92][0][][] */ -18,115,-15,-1,-36,52,-122,66,0,-17,60,-3,-41,127,64,27, 
  /* [93][0][][] */ 16,103,-40,-44,86,75,-87,15,76,70,63,41,-127,47,-50,54, 
  /* [94][0][][] */ 29,58,85,17,-127,-19,16,0,39,-26,29,-13,-53,-10,16,-20, 
  /* [95][0][][] */ -15,43,33,-16,53,-8,-68,56,27,17,-82,38,-7,-9,127,-55, 
};
const TfArray<4, int> tensor_dimension7 = { 4, { 96,1,1,16 } };
const TfArray<96, float> quant7_scale = { 96, { 0.0013203464914113283, 0.0024242333602160215, 0.0015915485564619303, 0.0014430672163143754, 0.0014168510679155588, 0.001618972746655345, 0.0011583685409277678, 0.0016428817762061954, 0.0015820031985640526, 0.0026560625992715359, 0.0011590596986934543, 0.0014077136293053627, 0.0013044980587437749, 0.00088025646982714534, 0.0014220020966604352, 0.0021157267037779093, 0.0029044845141470432, 0.0023227587807923555, 0.0022718675900250673, 0.0015648588305339217, 0.0019654829520732164, 0.0023244677577167749, 0.0022457395680248737, 0.0026366519741714001, 0.0026314952410757542, 0.0020504358690232038, 0.0016554786125198007, 0.0014270326355472207, 0.0015977286966517568, 0.0025254948996007442, 0.00088597368448972702, 0.0017317356541752815, 0.0015959243755787611, 0.0012048822827637196, 0.0014256173744797707, 0.0025197842624038458, 0.0022759900894016027, 0.0015380642144009471, 0.001140294480137527, 0.0010181495454162359, 0.0017806279938668013, 0.0013731276849284768, 0.0014800109202042222, 0.001790730282664299, 0.0021062868181616068, 0.0017176436958834529, 0.0011603513266891241, 0.0012344184797257185, 0.0011029031593352556, 0.0018426991300657392, 0.0022136501502245665, 0.0012592864222824574, 0.0010088520357385278, 0.0021148254163563251, 0.0012694132747128606, 0.0017167049227282405, 0.0024285558611154556, 0.0011507763992995024, 0.0022756427060812712, 0.0014633594546467066, 0.0014707084046676755, 0.0020142868161201477, 0.0043674837797880173, 0.0016089882701635361, 0.0014578589471057057, 0.0012427305337041616, 0.0016263413708657026, 0.0013736871769651771, 0.0019414549460634589, 0.0014631439698860049, 0.0013796052662655711, 0.0015334883937612176, 0.0010424728970974684, 0.0013076488394290209, 0.0011264154454693198, 0.0010724590392783284, 0.0021424985025078058, 0.001642485149204731, 0.0023510039318352938, 0.0015857511898502707, 0.00072573451325297356, 0.001266389386728406, 0.0017875988269224763, 0.0021559412125498056, 0.0022726038005203009, 0.001792137511074543, 0.0021245239768177271, 0.0018803146667778492, 0.0017574492376297712, 0.0018324375851079822, 0.0012678124476224184, 0.0023479675874114037, 0.0022338135167956352, 0.001389289740473032, 0.0023687055800110102, 0.0019408779917284846, } };
const TfLiteAffineQuantization quant7 = { (TfLiteFloatArray*)&quant7_scale, (TfLiteIntArray*)&g0::quant6_zero, 0 };
const MODEL_SECTION(EI_MODEL_SECTION) ALIGN(16) int32_t tensor_data8[16] = { 16350, 14959, -7243, -734, -5937, 1370, -251, 5034, 14225, -9972, -3628, 7470, -9646, 14042, 2809, 15374, };
const TfArray<1, int> tensor_dimension8 = { 1, { 16 } };
const TfArray<16, float> quant8_scale = { 16, { 4.3275009375065565e-05, 5.3525262046605349e-05, 4.631299088941887e-05, 7.2197741246782243e-05, 5.0501959776738659e-05, 8.249492384493351e-05, 4.6771387133048847e-05, 4.7958455979824066e-05, 7.6092816016171128e-05, 6.5793901740107685e-05, 5.0598806410562247e-05, 6.788177415728569e-05, 7.5448435381986201e-05, 5.7374483731109649e-05, 8.7006766989361495e-05, 5.9959249483654276e-05, } };
const TfArray<16, int> quant8_zero = { 16, { 0,0,0,0,0,0,0,0,0,0,0,0,0,0,0,0 } };
const TfLiteAffineQuantization quant8 = { (TfLiteFloatArray*)&quant8_scale, (TfLiteIntArray*)&quant8_zero, 0 };
const MODEL_SECTION(EI_MODEL_SECTION) ALIGN(16) int8_t tensor_data9[16*1*1*96] = { 
  /* [0][0][][] */ -114,56,32,-47,-50,5,-94,-27,-33,16,2,-4,12,48,23,-57,35,8,65,12,30,-70,127,51,38,16,-18,4,-53,-127,-68,19,-40,-67,21,-5,17,-1,9,39,-16,-22,-73,-5,-75,-37,5,75,-23,7,-69,-8,-12,11,-5,-60,-102,17,-20,101,41,45,-23,-4,-35,-87,-25,43,-42,-85,28,3,-4,-14,-52,-32,-52,15,-64,18,-78,80,87,-106,-5,41,36,51,44,-8,-10,-59,-11,-25,-69,4, 
  /* [1][0][][] */ 44,32,10,-63,-69,-6,-34,-13,-28,42,76,-33,-16,-21,-85,-46,19,-8,-79,45,16,-72,-7,42,3,-50,26,-77,66,-109,112,-54,73,21,7,57,52,60,-17,-24,6,0,-29,-17,1,43,-127,-49,-36,-35,-27,-36,25,-61,-20,50,9,27,-43,32,16,70,-22,-84,-13,-34,-50,20,-25,3,-65,-24,-60,-40,11,-71,-5,39,5,-58,-39,-48,-69,-41,14,-31,-1,20,-49,-25,-59,10,40,65,-65,60, 
  /* [2][0][][] */ 63,-30,37,38,0,-91,80,28,-18,-30,-26,-10,-46,-7,24,-17,-102,-27,-18,32,-18,-39,-24,42,-21,-69,-11,-7,-47,60,-59,95,-63,127,-37,6,-37,-13,-9,-26,-72,84,73,38,-41,24,-7,2,36,-4,-16,-36,56,-2,-16,67,12,-18,48,-19,31,22,-24,5,47,21,0,-37,35,63,-68,13,50,61,54,29,40,-64,86,24,98,-5,-76,42,-36,19,8,51,-7,5,-14,55,-80,27,-3,19, 
  /* [3][0][][] */ -33,5,-43,-6,21,6,1,-91,18,91,55,70,45,9,-78,44,23,-37,13,2,25,127,40,-78,-5,27,-39,-16,92,-42,91,-12,-17,34,-11,-4,26,51,62,3,-111,-36,-79,7,-53,32,73,10,-32,-34,-23,-27,49,-60,-24,-45,29,109,-5,14,-22,4,-67,9,15,39,-28,31,13,-16,33,-53,-29,-72,82,-9,7,18,-66,-5,-40,16,-66,-5,-34,-61,59,-9,23,16,29,-54,86,40,-53,49, 
  /* [4][0][][] */ 4,-6,-53,23,-5,18,-39,31,-33,116,116,-30,26,2,-16,-49,4,-35,-64,58,18,-43,43,79,-108,7,-127,2,-65,-78,18,33,-56,-33,39,73,-6,72,33,51,-64,-27,12,-26,5,36,-33,78,-20,86,13,-5,48,8,-62,7,74,16,26,-13,70,-11,28,-12,-30,51,-67,30,-81,37,-59,32,31,-49,-29,-40,35,-89,-13,15,-20,77,-98,23,-19,7,39,-89,86,-6,51,39,-44,-9,26,35, 
  /* [5][0][][] */ -81,16,57,7,23,-20,60,-15,-19,32,-12,-41,50,-22,-14,-24,-36,-34,46,10,-115,7,-71,38,-55,-23,32,12,24,-60,-35,7,30,127,3,16,-20,19,55,-20,-32,90,45,-37,9,76,43,10,0,18,-4,9,29,-14,17,-64,68,-52,-31,-65,68,61,-66,-6,96,-17,-83,-49,-69,-3,-71,-27,2,19,0,-45,40,-63,-14,-31,115,-41,16,-57,-43,38,-9,-20,-48,21,35,15,6,34,18,61, 
  /* [6][0][][] */ 33,-13,-66,37,-46,-111,111,110,-59,46,-30,56,-97,-62,59,39,-19,-37,8,9,-31,6,-49,-39,-65,28,46,42,34,17,90,-58,1,12,-4,-80,14,11,30,54,22,3,-40,-8,7,-43,-86,29,16,-127,-10,67,32,27,-17,-69,54,32,15,-11,-74,39,-91,-18,24,23,-7,30,26,-6,-19,-50,-24,40,100,27,70,-32,58,-90,16,-90,-73,75,18,-77,40,-8,-61,66,40,52,-42,-8,-22,80, 
  /* [7][0][][] */ 33,99,-57,-77,3,1,21,-23,-14,41,-40,-40,-65,15,5,-19,-23,-41,-52,62,10,104,13,19,-17,14,6,10,68,42,89,-20,76,15,-12,10,15,-10,9,23,-70,-16,17,-65,1,-62,120,-35,37,-70,-105,-15,-53,3,-5,-5,16,32,-88,22,-24,127,-6,-22,-37,-38,-28,39,-3,-26,-76,66,12,51,19,44,-65,68,-12,-46,-36,-29,64,-94,21,-19,14,26,14,77,-92,12,90,-10,-66,20, 
  /* [8][0][][] */ -23,56,-25,51,-47,-18,-89,31,-111,-36,19,-8,-21,49,30,94,-2,-70,5,10,34,15,-17,-41,-52,61,13,16,-21,2,-60,-41,-16,-63,-7,-61,-60,27,58,19,-13,-14,19,27,-18,-21,23,8,-47,4,62,44,6,-11,-72,116,-34,15,4,-46,-16,-12,37,51,-30,-39,-33,-2,-54,23,-3,-11,-15,-37,-122,-22,-35,9,-50,-51,-25,-10,-22,-6,2,7,2,16,13,60,-35,6,-74,-127,21,-56, 
  /* [9][0][][] */ -21,0,-95,36,-62,-20,65,68,-15,72,-5,79,8,-30,-3,127,23,-4,42,14,41,16,28,-103,-35,-8,37,-20,3,-32,43,61,-16,33,18,-91,24,23,-13,7,-40,12,11,-26,1,18,16,34,43,115,20,-27,-66,-79,11,0,19,16,81,-15,-52,64,-59,-36,97,25,-50,29,-94,27,36,14,-14,70,-15,-14,-33,2,-47,-12,71,-50,54,16,21,-24,-5,-55,-36,2,14,32,80,52,-60,7, 
  /* [10][0][][] */ 67,23,-69,-18,-20,-26,55,-29,42,-21,-14,12,-118,-2,10,-20,-57,-43,21,24,42,24,18,7,-84,88,35,-18,-31,-92,-15,-25,81,-61,34,10,103,-122,100,127,16,-72,16,-7,-34,-109,3,50,27,80,-90,-27,-19,19,13,51,-8,-55,70,62,-30,71,-65,-34,-37,-96,23,62,48,-40,6,75,116,15,44,-77,19,-42,40,12,-61,51,24,4,-51,-17,33,59,-36,-24,20,23,51,85,-50,16, 
  /* [11][0][][] */ -37,-20,14,-71,29,-13,-34,-67,32,-20,18,19,-16,4,-15,-9,-28,4,32,7,-30,24,-57,-75,6,1,-36,25,28,-63,47,-34,15,-25,11,-63,-38,9,-61,18,-65,52,-25,22,17,4,9,-26,27,-44,-69,-36,20,7,51,-35,-30,-23,27,-7,-39,-27,-35,-127,-7,-89,59,80,116,-14,81,-9,-39,-26,29,-39,86,34,2,61,19,17,-17,40,65,6,7,-6,-40,-47,-17,-14,79,57,25,63, 
  /* [12][0][][] */ 61,-28,-6,-39,66,100,-31,16,25,45,8,47,-19,43,27,-21,-44,43,21,31,112,0,64,-56,47,0,-72,-66,-19,53,9,3,33,-38,-17,-77,53,-47,-26,-34,43,-23,65,47,-5,7,-14,-31,-76,-2,1,28,-9,-61,-15,29,-40,53,0,48,25,-61,39,-99,-4,61,10,-43,8,-68,83,17,-1,16,-27,41,-10,36,-51,-14,-8,11,127,-6,-15,86,-5,-64,60,35,-65,30,46,-20,-15,-115, 
  /* [13][0][][] */ -11,62,-40,-69,3,0,-7,-65,25,-36,-21,-55,32,-93,-44,-98,-2,-37,-99,-21,-83,-27,38,106,-50,7,101,9,28,-60,70,35,14,-22,-119,87,-1,-73,72,-65,111,-5,27,12,-19,-106,70,-49,73,-35,-62,49,31,-28,-10,80,60,-32,-44,6,32,72,-11,-115,-13,-1,-23,58,-34,-63,-55,42,-71,14,-16,-76,-92,32,19,116,-35,75,52,-127,64,35,58,17,-3,2,-23,-30,-39,14,-38,-10, 
  /* [14][0][][] */ -28,-2,-97,-46,122,127,-82,-36,67,-17,86,-40,14,-40,-53,-72,-63,21,15,121,16,-3,30,4,6,1,-37,65,14,-17,-25,-19,71,-26,-33,-7,-9,58,106,14,45,12,47,-16,-17,-54,76,-62,20,-31,-33,-34,52,1,-54,33,40,88,-86,10,-29,-51,-56,-116,26,-56,-82,19,-44,36,14,66,1,-41,6,-34,41,-39,-69,-6,13,8,35,-37,-24,40,13,-6,-22,74,62,-17,14,-8,-56,-67, 
  /* [15][0][][] */ -28,-16,27,-75,60,-32,-60,-95,-13,-18,-1,81,-46,-22,51,75,-84,-11,34,-91,23,-50,5,-63,79,-6,60,-52,-51,-118,-102,36,-17,38,68,-104,27,-68,-19,-25,-8,-3,77,-28,-7,-32,62,83,-77,-20,16,-19,-42,27,0,-50,-116,-30,89,14,-51,28,-75,24,-88,-40,21,4,79,-89,101,4,50,-51,-58,-46,0,46,67,2,-27,91,60,2,-13,14,-127,26,-8,-32,-97,7,25,-50,-5,87, 
};
const TfArray<4, int> tensor_dimension9 = { 4, { 16,1,1,96 } };
const TfArray<16, float> quant9_scale = { 16, { 0.001839187927544117, 0.0022748236078768969, 0.0019683020655065775, 0.0030684038065373898, 0.0021463332232087851, 0.0035060341469943523, 0.0019877839367836714, 0.0020382343791425228, 0.0032339447643607855, 0.0027962406165897846, 0.0021504492033272982, 0.0028849754016846418, 0.0032065582927316427, 0.002438415540382266, 0.0036977874115109444, 0.0025482680648565292, } };
const TfLiteAffineQuantization quant9 = { (TfLiteFloatArray*)&quant9_scale, (TfLiteIntArray*)&g0::quant8_zero, 0 };
const MODEL_SECTION(EI_MODEL_SECTION) ALIGN(16) int32_t tensor_data10[96] = { -1379, 3631, -1659, -4094, 2892, 3469, -2767, -2141, 1172, 235, 11807, -1161, -1461, 9069, 7667, -2965, 9743, 3051, -8949, -1254, -3762, 2219, 7983, -2112, -67, -4924, -1310, -5003, -1473, -5521, 3463, 907, 12294, -3692, 2744, -1213, -1522, -976, 579, 3893, 227, 1468, -1650, -7061, 13166, 18224, -1228, 9444, -314, 12668, 12779, -2598, -331, 937, 1978, 6174, 1057, 266, 20176, 7846, 7227, 8915, 3647, -6223, -4011, -142, -1592, 3993, -5276, -1738, 484, 965, 8423, 565, -2487, 11096, -465, -5068, 8465, 1547, -2281, 11476, 1621, 939, 10158, -1695, -5849, -5383, 1917, -3494, 14519, 180, 1652, -2869, -6474, -4197, };
const TfArray<96, float> quant10_scale = { 96, { 0.00020475494966376573, 0.0001147623552242294, 0.00017321508494205773, 0.0001557555515319109, 0.00030277500627562404, 0.00031920048058964312, 0.00029559404356405139, 0.00023810664424672723, 0.00023415786563418806, 0.00017146387835964561, 7.0784881245344877e-05, 0.00036640942562371492, 0.00029162861756049097, 0.00012429304479155689, 0.00016081664944067597, 0.00023719978344161063, 0.00012896287080366164, 0.00029105882276780903, 8.2322680100332946e-05, 8.2104837929364294e-05, 0.00021993830159772187, 0.00030767032876610756, 0.00021720876975450665, 0.00019834877457469702, 0.00079516007099300623, 0.00016996463818941265, 0.0003167899267282337, 0.00012532166147138923, 0.00019399049051571637, 0.00013559727813117206, 0.00031703390413895249, 0.00024584925267845392, 0.00013230531476438046, 0.00013947844854556024, 0.00022794531832914799, 0.00021939902217127383, 0.00019852000696118921, 0.00037416492705233395, 0.00041685104952193797, 6.7087283241562545e-05, 0.00019338716811034828, 0.00025001104222610593, 0.00023872609017416835, 0.00010093645687447861, 6.5716732933651656e-05, 7.2038987127598375e-05, 0.00022642314434051514, 0.00011489813186926767, 0.00018125142378266901, 9.3276219558902085e-05, 0.00013717790716327727, 0.00010468759865034372, 0.00014313860447145998, 0.00013053574366495013, 0.00018586301303002983, 0.00023030610464047641, 0.00018438289407640696, 0.00025117350742220879, 9.2702219262719154e-05, 0.000117085175588727, 0.00014992972137406468, 0.00020973131177015603, 0.00019459954637568444, 0.0001033961889334023, 0.00019287559553049505, 0.00049055204726755619, 0.00039411539910361171, 0.00022530464048031718, 0.00021493651729542762, 0.00022953894222155213, 0.00031071036937646568, 0.00021587801165878773, 0.00013754109386354685, 0.00022557463671546429, 0.00030643769423477352, 0.00011329980043228716, 0.00012694881297647953, 0.00019478322064969689, 0.00015105816419236362, 0.00026487646391615272, 0.00028409762308001518, 0.00011063629062846303, 0.00029526033904403448, 0.00023308416712097824, 9.2021007731091231e-05, 0.00016859725292306393, 0.00011564440501388162, 0.00011364800593582913, 0.00020335981389507651, 0.00020413447055034339, 8.4154329670127481e-05, 0.00036326688132248819, 0.00021667042165063322, 0.00023993987997528166, 6.4328742155339569e-05, 0.00022805614571552724, } };
const TfLiteAffineQuantization quant10 = { (TfLiteFloatArray*)&quant10_scale, (TfLiteIntArray*)&g0::quant6_zero, 0 };
const MODEL_SECTION(EI_MODEL_SECTION) ALIGN(16) int8_t tensor_data11[1*3*3*96] = { 
  /* [0][0][][] */ 57,64,-15,77,-1,-13,61,24,69,-101,-97,49,-36,-25,46,-30,-114,-9,66,93,43,59,23,67,80,-8,-45,30,11,-39,24,-51,-77,14,-43,108,-6,47,4,-44,25,-40,-11,75,-127,-124,80,6,-35,-102,-111,-9,3,73,-30,-4,-82,-72,-34,-127,-109,22,-79,-7,2,27,13,-51,0,39,29,17,-49,-14,36,-24,13,3,-111,18,11,-96,89,-15,-10,-14,0,52,-108,0,-94,40,80,5,105,6, -31,-69,5,78,-31,127,3,-8,57,4,-125,26,-18,-26,-110,127,-127,53,75,54,127,15,73,105,93,-7,29,26,-10,127,-34,-127,27,127,-4,8,51,78,-45,-74,127,5,108,36,-30,-32,127,0,-2,-78,-127,-43,-6,127,-50,-127,22,7,-127,-96,14,-92,-28,127,-9,81,29,-26,30,127,127,-5,-93,8,-22,-127,50,-14,-36,127,10,24,127,-68,-119,-47,86,127,103,64,-127,-24,127,-21,114,49, 0,-124,-3,64,-20,-42,-5,48,20,13,-108,-45,-18,47,38,-65,16,12,14,48,53,37,25,40,24,-59,11,71,41,25,11,-74,-34,-68,-50,62,6,35,-15,-41,-16,16,-4,66,-56,-40,16,26,12,-65,-39,22,1,-26,7,9,57,-90,-22,-103,-16,23,-47,-32,52,29,-28,-23,-20,12,21,44,-7,-26,-18,-39,5,21,-86,-11,3,-66,52,-14,28,2,39,19,-98,1,-41,50,7,56,52,13, 
  /* [0][1][][] */ 109,-39,19,78,-7,-50,127,35,-19,-73,-90,127,-16,-115,-6,17,-2,-41,90,78,-85,-25,-127,-77,-23,76,-127,127,-65,126,127,23,-20,81,-8,127,-116,42,-28,-112,55,-127,53,110,-120,-121,30,-36,-126,-103,-80,-28,51,-63,68,-28,-127,12,-72,-30,-88,4,-30,112,-51,-32,127,-92,-26,42,-29,-127,-100,38,127,-115,127,100,-107,-67,127,-75,-36,117,41,4,2,103,-9,-3,-46,27,-38,-75,127,-56, -127,-33,-18,127,-96,-120,-107,-127,50,46,-19,7,-63,-127,-65,93,-60,-127,127,112,32,-127,-101,127,-127,127,27,64,-84,-56,-127,29,-127,97,127,7,30,127,127,-75,-37,0,38,34,38,-50,-45,-127,6,-37,-32,127,53,32,36,-32,39,-2,33,-29,-8,-45,-127,119,29,-127,47,127,38,87,-99,-92,21,19,-68,-57,92,127,87,-64,-58,41,-117,51,-112,-111,127,127,107,127,-90,-127,-120,-48,60,127, 28,-39,43,27,-10,-30,4,42,-52,127,-127,35,13,-7,-52,45,41,-67,11,24,-81,-11,-85,-20,-4,23,112,31,127,114,0,-125,-70,-102,-37,115,-127,4,-65,-91,-6,75,45,127,47,-14,9,-83,127,-127,-68,7,51,-109,-127,29,78,17,-115,34,-27,-59,10,29,127,-19,-17,-11,-35,18,-35,5,-127,-127,9,-1,-63,7,-127,-64,-69,-78,-34,125,-127,26,47,37,-29,-36,-8,50,-29,127,-31,-22, 
  /* [0][2][][] */ 55,-127,11,31,2,-14,50,94,-38,-59,-17,-71,9,-6,-28,14,-28,33,14,127,7,25,-21,-20,-20,58,11,-53,-16,-24,-13,50,-17,38,-65,19,92,20,4,18,-1,28,1,26,-53,-127,-46,-4,-35,-31,-66,35,33,-9,-42,-6,-55,15,-32,50,-127,26,64,-10,0,55,-44,-13,45,35,9,48,20,36,40,-37,-2,0,24,4,33,-88,-33,-34,-21,63,-37,47,-87,49,-13,25,-11,14,62,-2, -52,9,127,25,127,57,-17,22,-127,-33,-6,-72,127,-26,-127,9,-16,67,34,-70,24,-2,5,19,112,-33,1,16,-2,39,-37,18,-52,81,4,26,86,52,10,-127,-29,-17,-127,22,-25,-80,-62,-78,-1,-37,-23,98,127,-90,-93,-32,-49,127,-31,28,18,-127,60,78,12,32,-21,22,127,-7,8,67,-37,32,-5,-66,15,-22,-26,-15,22,-35,-39,-127,-58,127,18,74,81,47,24,19,-46,-11,24,11, 23,65,52,-29,-14,-10,-28,68,-18,41,3,-33,15,1,21,50,-46,-8,-19,87,3,11,-31,-24,-28,48,-10,21,6,-3,-42,-81,0,-22,-50,45,79,-10,-4,62,-2,-14,2,32,-99,-59,1,-52,16,-27,-49,19,-14,-38,5,8,-18,20,-40,36,19,18,33,-97,43,29,-24,18,23,37,3,36,-10,-19,6,11,-49,-5,3,-11,-3,-127,-56,3,-70,40,-7,-53,-127,11,18,24,9,39,26,-10, 
};
const TfArray<4, int> tensor_dimension11 = { 4, { 1,3,3,96 } };
const TfArray<96, float> quant11_scale = { 96, { 0.0087020853534340858, 0.0048774001188576221, 0.0073616411536931992, 0.0066196108236908913, 0.012867937795817852, 0.01356601994484663, 0.012562746182084084, 0.010119532234966755, 0.0099517088383436203, 0.0072872149758040905, 0.0030083572492003441, 0.015572400763630867, 0.012394215911626816, 0.0052824541926383972, 0.0068347076885402203, 0.010080990381538868, 0.0054809218272566795, 0.012369999662041664, 0.0034987139515578747, 0.0034894556738436222, 0.0093473773449659348, 0.013075988739728928, 0.0092313727363944054, 0.0084298225119709969, 0.033794302493333817, 0.0072234966792166233, 0.013463571667671204, 0.0053261704742908478, 0.0082445954903960228, 0.0057628839276731014, 0.013473940081894398, 0.010448593646287918, 0.0056229755282402039, 0.0059278341941535473, 0.0096876760944724083, 0.0093244584277272224, 0.0084370998665690422, 0.015902008861303329, 0.017716169357299805, 0.0028512096032500267, 0.0082189543172717094, 0.010625469498336315, 0.010145858861505985, 0.0042897993698716164, 0.0027929609641432762, 0.0030616568401455879, 0.0096229836344718933, 0.0048831705935299397, 0.0077031855471432209, 0.0039642392657697201, 0.0058300611563026905, 0.0044492227025330067, 0.0060833906754851341, 0.0055477689020335674, 0.0078991781920194626, 0.009788009338080883, 0.0078362729400396347, 0.010674873366951942, 0.0039398442022502422, 0.0049761198461055756, 0.0063720131292939186, 0.0089135803282260895, 0.0082704806700348854, 0.0043943380005657673, 0.0081972125917673111, 0.020848460495471954, 0.016749903559684753, 0.0095754470676183701, 0.0091348020359873772, 0.0097554046660661697, 0.013205190189182758, 0.0091748153790831566, 0.0058454964309930801, 0.0095869218930602074, 0.013023601844906807, 0.0048152413219213486, 0.0053953244350850582, 0.0082782870158553123, 0.0064199715852737427, 0.011257248930633068, 0.012074148282408714, 0.0047020423226058483, 0.012548564001917839, 0.0099060768261551857, 0.0039108926430344582, 0.0071653830818831921, 0.0049148872494697571, 0.0048300400376319885, 0.0086427917703986168, 0.0086757149547338486, 0.0035765590146183968, 0.015438842587172985, 0.0092084929347038269, 0.010197444818913937, 0.0027339714579284191, 0.0096923857927322388, } };
const TfLiteAffineQuantization quant11 = { (TfLiteFloatArray*)&quant11_scale, (TfLiteIntArray*)&g0::quant6_zero, 3 };
const MODEL_SECTION(EI_MODEL_SECTION) ALIGN(16) int32_t tensor_data12[96] = { 7051, 3531, 1064, -3003, 9079, 7213, 10349, 4449, -38, 12831, 570, -3368, 5391, 4635, 354, -1659, 2804, 3492, 442, -14, 4723, 9886, 23690, -2194, -5921, -741, 22265, 649, 1317, 468, 15879, -1622, 7005, 1489, 11078, -3780, 1167, -6185, -208, 1150, 1796, 1124, 1346, -232, 520, 2864, 2450, 2919, 4456, 2668, 9883, 3283, -2257, 2002, 1030, 1979, 2978, 4605, 9583, 587, -1266, 9738, 3219, 4273, 3121, 17671, -8575, 3600, 5399, -1596, 7090, 2140, 2624, 3325, 4679, 2617, -37, 2299, 3557, 4902, 2283, 4254, 9049, 2470, 1533, 4252, -77, -1824, 12339, -791, 563, -1255, 7533, 2818, -10, -355, };
const TfArray<96, float> quant12_scale = { 96, { 0.00010451957496115938, 0.00011319541226839647, 0.00013910683628637344, 0.00012516195420175791, 8.9585395471658558e-05, 9.2179368948563933e-05, 7.8089266025926918e-05, 8.8455730292480439e-05, 0.00011899859237018973, 6.5618063672445714e-05, 0.00011151465150760487, 0.00011847175483126193, 0.00010474830924067646, 0.0001114349506678991, 0.00019258521206211299, 0.00011949091276619583, 0.00017763134383130819, 0.00019905409135390073, 0.00011602181621128693, 0.00014707256923429668, 0.00014893739717081189, 8.2919475971721113e-05, 3.8630303606623784e-05, 0.00011216232815058902, 0.00010457037569722161, 0.00011683854245347902, 4.541899761534296e-05, 0.00010859751637326553, 0.00014187411579769105, 0.00013565590779762715, 5.5726944992784411e-05, 0.00012807954044546932, 0.00010259092232445255, 0.00025660556275397539, 7.262885628733784e-05, 0.00014916242798790336, 0.00019643579435069114, 0.00010833934356924146, 0.00024212355492636561, 0.00019517960026860237, 0.00017630317597649992, 0.00023509140009991825, 0.00022817312856204808, 0.00014101623673923314, 0.00027805156423710287, 0.00013542735541705042, 0.00019408429216127843, 0.00016960084030870348, 0.00013644546561408788, 0.00017679654411040246, 7.3205847002100199e-05, 0.00014793245645705611, 0.00015543639892712235, 0.0001657319808145985, 0.00015851344505790621, 0.00015713834727648646, 0.00013810627569910139, 0.00011102870485046878, 8.4939754742663354e-05, 0.00021383013518061489, 0.00020173181837890297, 8.1388578109908849e-05, 0.00015381177945528179, 0.00014558361726813018, 0.0001646221789997071, 5.0172067858511582e-05, 8.7306179921142757e-05, 0.00011888159497175366, 9.9917626357637346e-05, 0.00017744736396707594, 0.00010158254735870287, 0.00012708766735158861, 0.00010802873293869197, 0.0001184416760224849, 0.0001261043653357774, 0.00011137550609419122, 0.00022383981558959931, 0.00011877861834364012, 0.00011138131958432496, 0.00010920258500846103, 0.00016658802633173764, 0.0001032578365993686, 8.7052510934881866e-05, 9.6684794698376209e-05, 0.00017808983102440834, 0.00014405837282538414, 0.00015282974345609546, 0.00015701322990935296, 7.3910487117245793e-05, 0.00018360385729465634, 0.00022347788035403937, 0.00019822639296762645, 0.000101918623840902, 0.00014426170673687011, 0.00018871590145863593, 0.00019459270697552711, } };
const TfLiteAffineQuantization quant12 = { (TfLiteFloatArray*)&quant12_scale, (TfLiteIntArray*)&g0::quant6_zero, 0 };
const MODEL_SECTION(EI_MODEL_SECTION) ALIGN(16) int8_t tensor_data13[96*1*1*16] = { 
  /* [0][0][][] */ 13,76,-36,-58,-9,-61,-87,-42,21,-76,16,-27,24,-127,34,-118, 
  /* [1][0][][] */ -105,26,-127,-104,-62,-26,20,23,-27,4,86,-24,50,74,44,72, 
  /* [2][0][][] */ -74,-44,-89,14,-46,-64,-17,-61,-86,115,81,57,38,30,-48,127, 
  /* [3][0][][] */ -69,-77,4,-51,-95,9,-77,-127,-18,27,35,-76,-60,-56,-105,-41, 
  /* [4][0][][] */ 88,6,-45,24,-118,-24,-127,55,24,18,-33,58,2,19,-38,-87, 
  /* [5][0][][] */ -30,104,-110,17,13,-86,-49,-57,127,-21,16,0,3,-104,-110,-126, 
  /* [6][0][][] */ -8,-63,-27,14,-64,108,15,-10,-34,-57,127,-41,6,-8,-105,-31, 
  /* [7][0][][] */ -66,86,127,-51,119,118,-6,-32,-15,81,-87,-63,39,28,21,92, 
  /* [8][0][][] */ -54,24,36,-18,36,33,127,91,-66,-45,-13,-104,63,81,-33,-61, 
  /* [9][0][][] */ 28,22,112,14,-117,-61,-124,-62,62,-5,127,53,-55,-50,54,28, 
  /* [10][0][][] */ -44,-96,-10,-78,-127,100,52,11,-41,-34,-1,9,5,81,-116,48, 
  /* [11][0][][] */ 76,-53,13,58,-81,-20,72,-34,127,119,-49,22,1,-97,11,79, 
  /* [12][0][][] */ -43,-77,127,15,94,-47,-12,64,70,-5,58,31,-53,1,-101,11, 
  /* [13][0][][] */ -15,2,4,-1,-24,29,127,28,-96,-17,34,-8,14,80,65,-33, 
  /* [14][0][][] */ 106,-59,127,12,7,14,50,55,65,15,7,40,34,-42,-9,-59, 
  /* [15][0][][] */ 10,127,1,9,62,90,-124,113,-61,-13,-49,27,-96,106,-10,-68, 
  /* [16][0][][] */ -50,57,86,-35,9,78,1,-16,7,3,-33,12,86,-2,53,127, 
  /* [17][0][][] */ -29,60,41,-127,46,-21,-12,-46,-40,64,-14,38,-29,-13,41,-70, 
  /* [18][0][][] */ -59,-11,-81,-96,98,119,-52,-74,-6,44,94,55,5,127,-55,-6, 
  /* [19][0][][] */ 60,121,127,47,65,-29,31,3,-16,95,20,87,69,41,-84,18, 
  /* [20][0][][] */ 83,5,-12,56,-48,-13,-34,36,-20,-19,-127,-60,59,-5,34,-3, 
  /* [21][0][][] */ -37,-48,-23,127,-37,-20,-118,101,-6,25,1,19,-45,15,-26,8, 
  /* [22][0][][] */ -12,-18,-116,-5,127,-68,-75,100,111,114,39,74,-34,-22,-7,47, 
  /* [23][0][][] */ -65,13,-13,28,-2,35,112,120,-7,127,-46,-59,10,34,-85,-41, 
  /* [24][0][][] */ 12,-72,64,-38,105,33,127,-72,98,6,111,26,-78,6,24,-23, 
  /* [25][0][][] */ 99,-49,87,16,30,-39,-21,59,127,-15,-77,-8,100,-79,80,10, 
  /* [26][0][][] */ 44,12,127,38,91,-17,-38,-54,10,41,13,90,60,-64,-19,-74, 
  /* [27][0][][] */ -22,79,-85,13,-37,80,17,-78,-11,-91,127,18,34,-40,107,92, 
  /* [28][0][][] */ -42,17,-68,-109,6,-87,-28,-25,-91,127,-62,52,-27,42,-31,38, 
  /* [29][0][][] */ 79,102,-90,49,85,91,-55,-17,31,67,27,53,-127,29,-17,87, 
  /* [30][0][][] */ -45,127,-93,-62,73,-53,-7,11,-118,54,-44,-18,61,103,6,105, 
  /* [31][0][][] */ 18,-108,84,59,53,-65,-56,59,14,4,0,-57,-82,47,8,127, 
  /* [32][0][][] */ -55,60,-27,23,-127,23,-35,33,18,-97,9,-62,58,31,58,65, 
  /* [33][0][][] */ -51,14,51,85,-24,13,-41,-5,-25,-6,-6,5,-1,-2,32,127, 
  /* [34][0][][] */ -6,32,-121,-75,78,-17,-15,108,26,18,26,-10,-78,-12,-36,127, 
  /* [35][0][][] */ 65,15,11,-7,-13,25,-47,-21,-3,-127,-44,6,19,-30,25,-32, 
  /* [36][0][][] */ 17,47,-127,-3,4,124,-7,26,16,-6,58,12,31,26,-68,65, 
  /* [37][0][][] */ 41,45,15,-98,13,-76,86,-47,-127,39,-55,-19,37,32,127,83, 
  /* [38][0][][] */ -33,127,56,-42,43,27,63,-85,17,-5,-112,28,-57,-57,-87,2, 
  /* [39][0][][] */ 46,11,-126,-127,-22,-28,38,-71,9,4,22,-35,67,14,-87,-40, 
  /* [40][0][][] */ -47,20,-55,-79,5,-32,48,-127,24,11,35,-20,61,53,0,27, 
  /* [41][0][][] */ -76,-95,-30,127,7,-4,-84,1,-16,-91,93,-96,-56,9,-5,14, 
  /* [42][0][][] */ -19,44,-30,-127,19,19,39,-65,67,16,-35,26,63,-24,-9,-9, 
  /* [43][0][][] */ 1,63,19,-6,127,25,65,18,34,35,0,-85,-93,-65,-23,-1, 
  /* [44][0][][] */ 71,14,4,17,-24,5,31,31,5,-20,41,5,127,44,-63,0, 
  /* [45][0][][] */ 26,-71,-96,64,-75,-127,46,94,60,-30,-8,-4,-66,123,4,3, 
  /* [46][0][][] */ -37,-36,67,40,2,15,-70,24,2,-22,60,-68,46,70,65,127, 
  /* [47][0][][] */ -59,-54,-1,72,-1,6,98,50,-17,-117,-127,-73,41,-20,-105,46, 
  /* [48][0][][] */ -68,68,-35,-20,-3,43,20,-127,23,-16,35,-72,97,-105,-62,8, 
  /* [49][0][][] */ -33,10,29,-23,12,-5,107,127,-33,-29,-17,-19,-44,17,-77,26, 
  /* [50][0][][] */ 75,25,-94,53,45,-102,-62,4,-100,68,-29,24,14,-75,-127,-78, 
  /* [51][0][][] */ -66,50,-20,72,-6,61,-26,-83,-61,-58,28,-86,30,55,5,127, 
  /* [52][0][][] */ -127,24,5,-12,40,60,35,29,-15,-69,-20,-57,-87,-29,-125,6, 
  /* [53][0][][] */ -24,-29,-19,-127,-22,23,30,64,28,-73,-25,19,12,55,91,54, 
  /* [54][0][][] */ 11,-67,45,7,-15,57,54,-44,-20,-91,30,42,-15,0,-127,1, 
  /* [55][0][][] */ -21,-5,-64,26,52,-36,62,89,-49,-33,-127,-46,44,-4,5,66, 
  /* [56][0][][] */ 41,-33,-21,-22,-111,-8,-127,22,6,-59,-58,16,75,-39,55,52, 
  /* [57][0][][] */ -38,-4,44,-52,86,54,44,11,-34,19,17,-2,-42,90,-127,-25, 
  /* [58][0][][] */ 43,28,-27,-14,8,-31,-44,-35,27,-127,-61,29,-93,-34,-15,69, 
  /* [59][0][][] */ -56,-66,-26,-3,-27,32,-127,-34,45,89,-75,44,-42,-8,-2,-2, 
  /* [60][0][][] */ -7,-44,-25,13,-127,-9,52,16,18,64,-14,20,-12,-27,43,51, 
  /* [61][0][][] */ 19,18,-56,-17,-23,-11,-127,-89,-23,-10,44,108,74,-49,122,21, 
  /* [62][0][][] */ 32,-24,56,-21,-17,19,38,127,-96,82,-16,72,26,25,122,108, 
  /* [63][0][][] */ 6,-127,-6,-13,-47,15,21,-31,-13,-3,8,9,-35,100,102,28, 
  /* [64][0][][] */ 21,10,-101,-26,31,42,6,-26,20,-127,61,-3,11,-49,-30,55, 
  /* [65][0][][] */ -63,-12,115,-10,82,35,119,24,-31,7,-124,-127,42,81,-81,-8, 
  /* [66][0][][] */ 14,-81,-20,-44,-60,-127,13,6,10,-58,2,84,-92,-45,-70,44, 
  /* [67][0][][] */ -51,-71,-60,-1,-25,127,-19,-112,-65,28,-25,-73,-14,-7,-44,32, 
  /* [68][0][][] */ 127,18,-13,16,-104,23,-78,-31,-63,-77,3,36,34,-12,110,-38, 
  /* [69][0][][] */ 13,-5,43,-17,-9,-17,-55,14,-51,127,-20,4,-10,32,64,-22, 
  /* [70][0][][] */ 13,-12,-29,31,-59,40,22,-127,114,123,43,45,84,-27,-47,37, 
  /* [71][0][][] */ 103,-90,58,55,-127,-52,5,37,93,-16,-72,11,88,2,1,55, 
  /* [72][0][][] */ -22,-47,58,72,77,8,-127,76,100,18,63,31,-69,-65,-30,72, 
  /* [73][0][][] */ 76,51,51,-127,92,-45,-92,63,-54,93,-14,-3,43,-32,-3,-71, 
  /* [74][0][][] */ 112,15,11,39,-127,-16,55,-11,-121,-36,9,-50,67,-45,-28,-6, 
  /* [75][0][][] */ 48,112,-120,20,43,26,-21,-30,6,8,43,98,-127,12,42,84, 
  /* [76][0][][] */ -84,-45,-5,-56,-61,-1,71,-21,-71,39,81,22,-5,-127,-11,94, 
  /* [77][0][][] */ -61,76,-20,69,-3,-101,4,127,77,-42,-29,83,-79,11,-56,65, 
  /* [78][0][][] */ 127,70,-58,34,-86,37,-104,-35,-12,-22,-53,29,79,-88,38,104, 
  /* [79][0][][] */ -98,12,127,41,-51,-127,-21,-85,5,49,55,-13,-36,110,-66,99, 
  /* [80][0][][] */ 21,43,42,-127,-42,37,111,-47,34,18,-29,11,73,-91,-6,16, 
  /* [81][0][][] */ 36,-42,-21,-107,121,47,-23,127,84,57,-10,-28,18,38,-78,-66, 
  /* [82][0][][] */ 25,26,85,-4,127,-68,61,-9,42,96,12,13,23,-19,1,-84, 
  /* [83][0][][] */ -77,49,-11,22,86,84,56,80,32,88,-66,-62,-127,52,-49,-92, 
  /* [84][0][][] */ -19,-83,0,64,35,-40,-64,2,-93,74,-18,-30,-127,72,47,-62, 
  /* [85][0][][] */ -55,38,-66,13,-69,-55,-62,5,-43,18,5,-17,-127,-26,-28,40, 
  /* [86][0][][] */ -28,78,80,106,10,-22,99,16,36,25,-46,-66,35,80,-127,-56, 
  /* [87][0][][] */ -46,44,112,-34,-127,-46,13,44,42,-30,-6,33,-58,21,-23,16, 
  /* [88][0][][] */ 14,-49,-100,16,41,1,-5,37,-24,-88,-79,-102,127,-7,25,40, 
  /* [89][0][][] */ 26,18,-5,-127,5,-56,-66,44,106,-1,37,-107,-6,-14,56,-61, 
  /* [90][0][][] */ -13,76,25,-2,-31,59,80,72,11,-51,18,127,63,52,-45,50, 
  /* [91][0][][] */ -32,-30,-10,56,26,23,0,-94,-3,4,-37,-15,-86,-127,-83,14, 
  /* [92][0][][] */ -41,82,-1,-35,-127,-22,-57,49,-54,72,56,41,22,-25,70,59, 
  /* [93][0][][] */ 103,50,127,37,-100,-63,-5,12,20,-33,-45,-65,29,-91,-7,-12, 
  /* [94][0][][] */ -52,-127,28,-117,-1,39,-32,-11,77,-11,-12,41,32,43,-25,54, 
  /* [95][0][][] */ -29,-39,-46,-49,41,110,-12,20,39,15,-2,37,-14,127,-18,28, 
};
const TfArray<96, float> quant13_scale = { 96, { 0.0016477844910696149, 0.0017845617840066552, 0.0021930637303739786, 0.0019732180517166853, 0.0014123423025012016, 0.0014532371424138546, 0.0012311021564528346, 0.0013945328537374735, 0.0018760507227852941, 0.0010344897164031863, 0.0017580640269443393, 0.0018677449552342296, 0.0016513904556632042, 0.0017568075563758612, 0.0030361672397702932, 0.0018838123651221395, 0.0028004148043692112, 0.0031381512526422739, 0.0018291209125891328, 0.0023186460603028536, 0.0023480455856770277, 0.0013072519795969129, 0.0006090190727263689, 0.0017682749312371016, 0.0016485853120684624, 0.0018419969128444791, 0.0007160449749790132, 0.0017120745033025742, 0.0022366906050592661, 0.0021386586595326662, 0.00087855308083817363, 0.0020192149095237255, 0.0016173786716535687, 0.0040454687550663948, 0.0011450171004980803, 0.0023515932261943817, 0.003096872940659523, 0.001708004274405539, 0.0038171550258994102, 0.0030770685989409685, 0.0027794758789241314, 0.003706290852278471, 0.0035972222685813904, 0.0022231659386307001, 0.004383571445941925, 0.0021350553724914789, 0.0030598007142543793, 0.0026738112792372704, 0.0021511062514036894, 0.0027872538194060326, 0.0011541135609149933, 0.0023322023916989565, 0.0024505043402314186, 0.0026128175668418407, 0.0024990150704979897, 0.0024773362092673779, 0.0021772894542664289, 0.0017504029674455523, 0.0013391022803261876, 0.0033711004070937634, 0.003180366475135088, 0.0012831168714910746, 0.0024248918052762747, 0.0022951720748096704, 0.0025953212752938271, 0.00079097866546362638, 0.0013764097820967436, 0.0018742062384262681, 0.0015752332983538508, 0.0027975142002105713, 0.0016014812281355262, 0.0020035775378346443, 0.0017031073803082108, 0.0018672707956284285, 0.001988075440749526, 0.0017558704130351543, 0.0035289060324430466, 0.0018725828267633915, 0.0017559620318934321, 0.0017216135747730732, 0.0026263133622705936, 0.0016278927214443684, 0.0013724105665460229, 0.0015242666704580188, 0.0028076430317014456, 0.0022711262572556734, 0.0024094097316265106, 0.0024753636680543423, 0.0011652223765850067, 0.0028945733793079853, 0.0035232000518590212, 0.0031251022592186928, 0.0016067796386778355, 0.0022743318695574999, 0.0029751663096249104, 0.0030678161419928074, } };
const TfLiteAffineQuantization quant13 = { (TfLiteFloatArray*)&quant13_scale, (TfLiteIntArray*)&g0::quant6_zero, 0 };
const MODEL_SECTION(EI_MODEL_SECTION) ALIGN(16) int32_t tensor_data14[16] = { -22283, -6503, 806, -10442, 6667, -15428, 26528, -7629, 9503, -12756, 15048, 17796, 3062, -24790, 4721, 7671, };
const TfArray<16, float> quant14_scale = { 16, { 7.2317576268687844e-05, 4.4242566218599677e-05, 5.9103549574501812e-05, 4.6745808504056185e-05, 0.00011589856876526028, 9.844097075983882e-05, 4.8806195991346613e-05, 8.054409408941865e-05, 9.1171357780694962e-05, 9.1894486104138196e-05, 9.1259003966115415e-05, 7.5897580245509744e-05, 7.5390933488961309e-05, 5.5349584727082402e-05, 7.3162045737262815e-05, 6.7727858549915254e-05, } };
const TfLiteAffineQuantization quant14 = { (TfLiteFloatArray*)&quant14_scale, (TfLiteIntArray*)&g0::quant8_zero, 0 };
const MODEL_SECTION(EI_MODEL_SECTION) ALIGN(16) int8_t tensor_data15[16*1*1*96] = { 
  /* [0][0][][] */ -9,31,1,18,-1,-83,-11,-27,-17,-62,-4,2,44,-83,68,41,-56,-30,60,5,102,30,-60,-9,-7,54,127,69,8,72,58,-29,17,-4,8,-11,40,32,-21,4,101,10,13,-39,-3,-35,-2,-31,29,-47,87,1,-66,13,32,38,-21,-37,0,4,0,47,-65,-22,28,-6,52,19,-14,-23,34,11,29,21,25,24,55,-29,37,34,-11,44,32,41,-57,-8,-1,59,13,8,-76,1,29,20,93,45, 
  /* [1][0][][] */ -9,57,-67,-30,2,-63,73,-87,-47,-23,-74,-56,-22,-55,17,-39,-14,-15,-23,-10,7,-72,127,-56,10,-4,10,55,-43,27,-47,25,-14,27,17,20,11,68,-58,89,45,6,-11,-74,73,-59,-22,39,-59,-3,15,-124,-17,66,71,78,15,22,-58,-2,-35,-27,-18,-24,57,54,88,-13,-72,-101,-7,8,38,58,-5,5,-35,-32,100,-2,53,8,58,-48,-18,-45,-9,25,-29,-23,51,21,48,-37,-52,48, 
  /* [2][0][][] */ 27,-35,28,-2,59,58,-25,49,-91,28,-14,-12,44,7,16,26,18,-15,-127,-28,-19,-53,-23,33,-12,-5,-55,28,-41,-13,7,85,-31,-23,-1,2,-64,7,-4,-37,53,22,18,36,0,79,23,-15,-104,15,-19,39,-10,32,3,-63,40,-3,53,48,-29,-15,-7,53,17,-10,-7,16,4,34,-38,-51,23,39,33,52,-71,4,-12,-46,7,19,23,-43,5,-75,-22,-30,-5,-16,-37,45,-28,-18,96,-41, 
  /* [3][0][][] */ 5,-33,-39,-127,-33,-65,113,-55,42,121,-96,35,0,-52,1,88,99,21,-4,36,-31,29,39,-22,-45,77,43,3,-40,13,-74,77,25,-48,32,-18,28,-41,-36,87,21,-4,-31,12,62,-92,-24,10,68,-48,47,-57,118,79,19,-21,18,5,-27,-56,-30,48,62,-12,-11,-14,120,-51,-46,-27,-26,25,27,-91,-2,-94,36,-40,107,36,-6,-63,-45,-21,-60,-43,107,70,-10,32,-42,17,43,-81,-44,10, 
  /* [4][0][][] */ -22,50,24,-8,-28,-13,-35,9,24,-42,9,0,14,28,-4,20,2,-42,5,-41,26,-11,-39,24,-5,-31,-16,6,-14,127,-46,-2,17,-32,13,-14,43,48,-21,-5,18,-1,12,-16,-36,2,20,-14,15,12,-34,-24,-38,13,38,11,24,43,18,14,-37,-78,-35,16,50,30,-58,9,-1,7,34,-30,-31,48,33,67,-17,15,-69,35,26,48,27,-37,14,-46,-11,-62,-25,-54,-29,-21,8,19,11,3, 
  /* [5][0][][] */ 7,-20,53,-24,-28,-5,-25,18,30,0,-22,-24,-5,-11,25,-30,-5,19,-59,-26,-30,29,-18,38,16,-35,58,-23,-1,45,15,90,-19,-69,18,15,-55,-38,-11,-15,-50,-1,-5,28,24,39,-74,20,-38,37,40,-17,29,-78,14,21,-21,-70,29,-27,37,20,25,52,-48,0,104,-15,12,1,2,40,-12,41,24,34,-16,-11,127,30,-30,-7,-25,22,54,56,-8,85,-12,-46,-9,-11,-7,-3,-19,42, 
  /* [6][0][][] */ 20,-79,81,12,-12,127,-39,-82,-47,-76,-97,85,26,18,-40,58,22,22,10,-60,-81,-14,-82,-25,-19,-31,-30,48,-103,55,-6,-18,24,68,-28,-6,-16,-36,17,-42,-65,44,42,-19,22,46,-65,-35,22,15,-120,-93,96,-34,-47,-26,38,-13,38,-34,-28,-45,33,-18,21,-87,-86,-22,-90,1,-43,-50,-29,-55,4,-100,43,-6,-82,18,-54,59,14,-91,89,-61,-32,-17,-106,75,-78,88,28,-64,85,-98, 
  /* [7][0][][] */ -31,6,-65,48,-18,-19,46,-29,-83,12,59,51,-10,-66,11,-15,17,3,20,6,-18,-23,-21,-61,53,23,8,61,-11,39,11,27,-30,-127,21,90,11,25,-41,20,-14,-27,-1,-65,24,24,52,70,1,32,-39,8,16,-12,39,-38,-21,44,-74,-25,52,16,-3,-40,69,-36,98,-28,-57,-24,64,-19,21,-41,-62,-39,35,-35,73,-8,-7,3,-75,-12,26,12,-56,32,-5,16,25,59,52,-24,57,-31, 
  /* [8][0][][] */ 0,-54,6,2,-21,1,10,18,-8,7,54,45,25,39,-26,-15,74,-15,-1,2,-26,-88,-17,-11,-24,-37,57,7,-32,30,3,-50,-16,-5,-15,7,-36,-7,41,-37,16,46,39,-28,28,7,25,-27,52,14,39,-10,3,15,-35,-5,0,127,-36,12,-36,-68,-58,-7,-97,-23,-18,28,-23,-15,30,-12,-44,-124,30,-90,29,16,-70,39,-20,-3,7,72,54,-41,-58,42,-39,87,21,-20,-63,27,-8,-52, 
  /* [9][0][][] */ -11,-27,-23,0,-10,18,-10,62,-26,-7,47,41,-26,67,22,-48,-11,36,-11,-28,6,34,5,13,0,7,-4,0,37,9,12,-6,2,-14,13,59,-18,7,27,-8,-2,-24,6,10,13,46,-16,44,-40,37,-21,14,127,13,-2,4,29,-19,58,13,-36,-15,69,27,18,37,55,8,35,16,-14,39,-8,-112,-44,-105,-18,-8,23,-2,8,37,11,-33,39,20,-38,-1,-3,116,47,3,54,42,-26,56, 
  /* [10][0][][] */ 6,42,1,-3,-6,12,-30,-32,57,-1,-30,27,4,0,-19,-37,-24,-5,8,-11,2,4,-23,-40,-1,-11,-72,38,-11,50,-10,0,17,22,-15,-15,19,13,-4,12,18,-20,45,-53,-42,-23,22,33,22,-2,7,-12,-31,-13,-2,29,-28,7,-34,-13,-11,-34,-5,4,7,-23,-96,-14,-58,-32,46,-24,-11,17,42,12,39,-20,-91,12,-13,12,7,-5,-4,-6,-51,-127,-7,14,19,32,63,-29,19,5, 
  /* [11][0][][] */ -2,-26,-6,11,-35,10,13,-13,55,-23,-30,-24,15,-10,5,3,-4,37,32,-52,23,9,6,-35,21,9,54,4,10,-44,-31,8,23,67,-95,3,23,-8,33,19,-49,35,-15,3,-41,-16,-8,2,48,-38,-32,-9,-23,15,-64,69,-26,-1,-9,-38,26,6,-20,-62,-3,-37,-127,-75,-15,-47,-77,11,50,6,-2,-11,29,43,-97,-22,-16,-20,-16,0,-22,-16,50,48,9,-42,14,19,-33,17,67,3, 
  /* [12][0][][] */ 0,30,-34,-23,35,-28,-13,14,40,-35,-3,13,2,-30,-17,1,26,-33,11,21,28,49,2,30,-46,-38,-127,-19,66,-30,38,3,-16,-86,50,1,35,-26,-15,16,-10,-52,11,18,46,-27,18,-38,-57,-11,-79,93,64,2,34,-74,-16,14,-42,-40,23,54,62,-7,-5,-14,6,13,106,19,-3,4,23,-14,-21,-6,-28,-60,37,-48,0,-59,29,-28,26,-11,-5,-98,-34,30,-29,39,-4,47,12,15, 
  /* [13][0][][] */ -28,34,-44,44,43,9,8,-16,26,61,-53,50,-38,-22,52,-42,35,59,88,20,-12,-43,-23,-6,23,56,-14,7,21,42,25,-2,-29,36,-11,37,32,-53,-49,-51,-14,-13,10,-5,46,48,-9,36,-57,30,-13,8,-19,-41,68,36,-1,-50,-18,-29,27,21,-2,-46,-4,85,112,20,24,3,-59,-33,59,58,-71,53,-1,-79,127,-52,-47,-43,16,-16,46,37,-57,-34,-46,-26,9,70,50,-6,82,25, 
  /* [14][0][][] */ -36,59,17,26,-36,-58,0,16,-67,-44,53,-2,-76,-24,81,-15,-22,44,-22,53,0,31,-97,-9,-52,-6,-62,-110,36,-3,11,79,-34,3,28,-22,-22,-83,-30,-29,10,-49,33,-10,-6,30,-81,32,-16,-51,63,12,9,46,-35,18,-62,37,8,21,51,84,-20,30,23,-40,-7,-83,52,66,73,37,-42,24,-3,7,40,-12,26,26,-71,97,-1,-109,80,-11,-4,-4,-127,-10,-4,8,-32,33,27,9, 
  /* [15][0][][] */ 70,-8,14,34,56,-9,-11,-31,8,49,-72,-33,50,48,-11,-28,-31,39,-76,45,6,-20,25,16,61,-41,86,17,38,-51,-54,47,58,29,3,-83,54,42,51,61,76,27,-21,22,-56,-112,39,-16,-13,-53,-37,10,-11,-25,-18,80,-42,-1,-39,9,20,-23,-30,23,39,44,-77,15,9,-21,-20,-29,29,-127,-42,-120,-14,5,-71,40,61,-33,35,7,-41,-14,-10,-19,3,106,-3,-34,-54,-41,33,-58, 
};
const TfArray<16, float> quant15_scale = { 16, { 0.0030734969768673182, 0.0018803090788424015, 0.0025119008496403694, 0.0019866968505084515, 0.0049256891943514347, 0.0041837412863969803, 0.0020742632914334536, 0.003423124086111784, 0.0038747827056795359, 0.0039055156521499157, 0.0038785075303167105, 0.0032256471458822489, 0.0032041145022958517, 0.0023523573763668537, 0.0031093868892639875, 0.0028784340247511864, } };
const TfLiteAffineQuantization quant15 = { (TfLiteFloatArray*)&quant15_scale, (TfLiteIntArray*)&g0::quant8_zero, 0 };
const MODEL_SECTION(EI_MODEL_SECTION) ALIGN(16) int32_t tensor_data16[96] = { 7660, 5971, -11028, 6290, -6006, -3398, 470, -1604, -672, -3072, 2391, -3309, 4758, -5126, -1200, -8291, 772, -740, -4036, -3817, -2910, 130, -4479, -3857, 86, 9336, -10982, -7109, -1022, -4880, -4766, -464, 12702, -1378, 3546, -3402, 3439, 9820, 10654, 9492, -2012, 2599, -592, 6574, -1790, -307, -3044, 5474, -2723, -510, -4430, -1151, 478, -2338, 3506, 1695, -2156, -1117, 1531, 1848, 3995, -3925, 4817, 10275, 10315, -1964, 9517, 18009, 431, -1725, 10054, -1695, -254, -454, -3791, -2806, 22109, 7159, 8426, 1556, 9425, -1723, 5225, 8111, -2564, 1205, 2165, -7089, 5587, 4061, -5412, -3550, -1380, 4642, 19989, -3607, };
const TfArray<96, float> quant16_scale = { 96, { 0.00012011174112558365, 0.00021633747383020818, 9.930277883540839e-05, 0.00013409048551693559, 0.00013390101958066225, 0.00043762568384408951, 0.00011797666957136244, 0.00030072053777985275, 0.00034211573074571788, 0.00025733592337928712, 0.00035628213663585484, 0.00017499495879746974, 0.00011102759890491143, 0.00010349882359150797, 0.00019207752484362572, 0.00013532403681892902, 0.00031263069831766188, 0.00032435372122563422, 0.0002155322436010465, 0.00035211269278079271, 0.00020085118012502789, 0.00023861406953074038, 0.00012652477016672492, 0.00016499012417625636, 0.0025839244481176138, 0.00011909910972462967, 0.00018974331032950431, 0.00011023755359929055, 0.00036356391501612961, 0.00016736486577428877, 0.00016440822219010442, 0.00039011723129078746, 7.7855533163528889e-05, 0.00034139942727051675, 0.00015155012079048902, 0.00019939833146054298, 0.00018918098066933453, 9.5671646704431623e-05, 0.00011051906767534092, 0.00013626768486574292, 0.00068002811167389154, 0.00031822864548303187, 0.00019054126460105181, 0.0001221995335072279, 0.00017023790860548615, 0.00025570980506017804, 0.00032487988937646151, 0.00020477671932894737, 0.0002131767978426069, 0.0003815317468252033, 0.00025821066810749471, 0.00024525730987079442, 0.00020422079251147807, 0.00026374415028840303, 0.00026406344841234386, 0.00031777896219864488, 0.00014776871830690652, 0.00056694820523262024, 0.0003983635688200593, 0.00024824964930303395, 0.00024349361774511635, 0.00019798557332251221, 0.0001920317008625716, 8.9597953774500638e-05, 0.00023706771025899798, 0.0005000170785933733, 0.00017782712529879063, 8.4905375842936337e-05, 0.00024505256442353129, 0.0002997472183778882, 0.00012727819557767361, 0.00024717728956602514, 0.00033433642238378525, 0.00019217221415601671, 0.00014630646910518408, 0.00022909515246283263, 5.2582265197997913e-05, 0.00021587288938462734, 0.00012123428314225748, 0.00017510751786176115, 0.0001129031297750771, 0.000302417844068259, 0.00016151326417457312, 0.00030239694751799107, 6.9709712988696992e-05, 0.00027838602545671165, 0.00021711678709834814, 0.00018687211559154093, 0.00022519954654853791, 0.00025086011737585068, 0.00012890603102277964, 0.00024279046920128167, 0.00033750990405678749, 0.00018405349692329764, 8.5792875324841589e-05, 0.00027589133242145181, } };
const TfLiteAffineQuantization quant16 = { (TfLiteFloatArray*)&quant16_scale, (TfLiteIntArray*)&g0::quant6_zero, 0 };
const MODEL_SECTION(EI_MODEL_SECTION) ALIGN(16) int8_t tensor_data17[1*3*3*96] = { 
  /* [0][0][][] */ -43,-48,48,-64,127,16,14,18,5,-20,-20,-32,-24,34,-15,14,-9,-3,-49,-3,14,32,35,70,-10,-34,-16,12,29,24,42,-3,-13,11,-41,-18,-25,-111,-127,4,1,10,22,-25,-15,50,-17,-38,-12,-1,-5,46,-62,-32,14,-8,34,-3,-5,-5,-22,4,-25,-117,-20,-13,-52,-15,-12,24,-30,23,41,21,25,15,-84,1,127,-37,-67,25,-95,27,-33,-14,39,29,-6,-17,15,-18,-6,25,-30,-6, -39,4,98,-73,-26,21,127,-24,11,-34,-48,14,-60,38,-113,91,-6,98,18,-20,-7,127,103,127,17,-9,69,88,127,41,127,-34,-127,-9,-127,-29,-48,-60,102,-12,-29,-127,-26,-50,55,-26,17,-19,41,16,15,127,-65,8,-75,-13,-56,8,-15,30,-17,-127,-111,12,-59,8,-14,-127,-5,17,-39,117,-112,-2,-11,-5,-127,-62,1,-127,-35,-9,-17,-78,97,54,-49,54,-30,-11,21,-14,19,88,-37,-78, -94,-27,34,-40,96,18,30,4,-3,6,-21,-21,-28,10,-25,-8,-8,-8,-60,-15,-38,29,-7,42,-16,-26,-1,38,28,38,24,1,12,15,-58,69,8,-3,-105,7,-7,24,4,7,2,-27,3,-31,-4,3,1,34,4,5,-14,-6,125,5,-8,-21,-24,20,-53,2,-24,-29,127,-17,0,25,5,32,-16,16,25,30,-62,55,-39,17,-29,8,-127,0,12,-45,48,-21,-15,-57,7,47,8,-4,-42,3, 
  /* [0][1][][] */ -81,-42,127,-29,68,113,-23,-24,4,-20,-29,-44,-127,60,23,72,-22,42,28,41,21,-34,70,9,34,1,99,35,-9,-2,20,-10,-91,-6,48,-2,-28,-127,-116,-127,-7,22,98,-58,-63,127,-3,-103,48,97,24,-23,-109,24,41,-45,39,-15,28,-11,-11,-5,56,-127,-44,8,-42,-95,-21,-13,-127,30,127,127,19,-46,-114,-80,-40,-5,-60,-3,13,-61,96,10,-106,53,-127,127,92,-53,127,-18,-74,2, 51,127,97,127,-120,-127,51,-81,127,127,-79,-48,-23,127,-25,115,127,-127,110,127,127,-95,127,-102,-127,-127,127,127,-111,127,2,127,-30,127,110,-79,127,42,18,-65,127,13,-127,-127,127,-16,127,127,127,-127,127,-99,96,127,-127,127,-102,127,-127,127,-127,121,56,-96,127,127,-14,114,-127,-127,-45,-127,37,99,127,75,-71,-127,101,-86,-9,127,119,127,127,57,-127,127,-34,36,-28,-5,-92,-36,-127,-5, -127,-55,83,-60,36,69,-57,6,-24,-39,-8,127,-50,35,43,48,-31,44,26,27,1,-20,96,-2,27,-11,48,42,-13,-8,43,-8,-70,-22,84,127,-36,-8,-115,-74,-25,-13,35,-47,-21,-78,-8,-125,10,90,9,-3,127,1,62,-55,127,-11,37,-48,-27,-35,-127,-113,-75,-7,-50,-89,-57,10,-117,10,6,-68,30,127,-55,1,-39,63,-127,-6,-10,-83,23,10,-52,52,-44,-118,127,127,-47,-28,-115,13, 
  /* [0][2][][] */ 23,-66,33,-27,71,10,-16,28,-1,14,23,-27,36,17,-14,-34,-11,-24,-11,2,14,-21,-51,20,-11,4,-22,8,10,31,2,-6,-20,5,-13,-1,-22,-79,-47,3,-6,0,24,13,27,9,-34,-2,-84,14,-10,-24,-22,-70,5,-6,4,-13,4,-23,-29,61,-21,-65,-48,-3,122,-19,34,49,-31,-9,23,2,-14,-7,8,-17,-18,49,-65,15,-21,-25,39,-12,68,-45,23,-18,-5,-9,2,-28,-12,-3, 11,-84,74,-77,-20,5,55,127,-36,93,127,-7,0,39,127,127,-11,-36,127,-43,-13,-35,57,60,-6,-22,5,-1,-19,30,-55,-38,-60,-15,-114,12,-105,-96,75,-30,-11,-40,-38,109,12,-13,20,-17,-34,-3,5,-14,32,7,-60,-22,-71,-34,43,-66,101,79,54,-36,-93,-31,-33,-90,126,46,-51,7,46,-12,-2,-4,-36,-12,6,101,-28,-26,-67,-79,85,-127,25,12,4,-18,-8,-5,29,-127,-46,127, -1,-13,30,-56,66,10,-25,12,-10,-16,1,99,34,27,-21,-22,-14,21,-3,-4,-3,10,-23,21,-27,-2,-24,1,10,29,-3,3,21,8,-12,15,-36,-50,-71,-14,-17,16,10,-37,42,-25,-6,-6,-47,-7,6,-30,-17,-57,8,-6,36,-9,4,-47,-14,65,-36,-48,-41,-14,-41,-28,6,33,-11,-19,-60,-27,-18,1,18,30,90,60,-7,15,-6,-1,4,-12,86,-2,25,-22,-4,32,13,-35,-21,12, 
};
const TfArray<96, float> quant17_scale = { 96, { 0.0051047489978373051, 0.0091943424195051193, 0.0042203678749501705, 0.0056988457217812538, 0.0056907930411398411, 0.018599091097712517, 0.0050140083767473698, 0.012780622579157352, 0.01453991886228323, 0.010936776176095009, 0.015141990967094898, 0.0074372855015099049, 0.0047186729498207569, 0.0043986998498439789, 0.00816329475492239, 0.0057512717321515083, 0.013286803849041462, 0.01378503255546093, 0.009160120040178299, 0.014964789152145386, 0.0085361748933792114, 0.010141097940504551, 0.0053773024119436741, 0.0070120804011821747, 0.1098167821764946, 0.0050617121160030365, 0.0080640902742743492, 0.0046850959770381451, 0.015451465733349323, 0.0071130064316093922, 0.006987349595874548, 0.01657998189330101, 0.0033088601194322109, 0.014509474858641624, 0.0064408797770738602, 0.0084744291380047798, 0.0080401916056871414, 0.0040660449303686619, 0.0046970602124929428, 0.0057913763448596001, 0.028901193290948868, 0.013524716719985008, 0.0080980034545063972, 0.0051934798248112202, 0.0072351107373833656, 0.010867666453123093, 0.013807395473122597, 0.008703010156750679, 0.0090600140392780304, 0.016215099021792412, 0.010973953641951084, 0.01042343582957983, 0.0086793834343552589, 0.011209125630557537, 0.011222696863114834, 0.013505605049431324, 0.0062801702879369259, 0.02409529872238636, 0.016930451616644859, 0.010550609789788723, 0.010348478332161903, 0.0084143867716193199, 0.008161347359418869, 0.0038079130463302135, 0.01007537730038166, 0.021250724792480469, 0.0075576528906822205, 0.0036084784660488367, 0.010414733551442623, 0.012739256955683231, 0.0054093231447041035, 0.01050503458827734, 0.014209297485649586, 0.0081673189997673035, 0.0062180249951779842, 0.0097365435212850571, 0.0022347462363541126, 0.0091745974496006966, 0.0051524569280445576, 0.0074420692399144173, 0.0047983829863369465, 0.012852758169174194, 0.0068643135018646717, 0.012851870618760586, 0.0029626626055687666, 0.011831405572593212, 0.0092274630442261696, 0.0079420646652579308, 0.0095709804445505142, 0.010661554522812366, 0.0054785064421594143, 0.010318594984710217, 0.014344170689582825, 0.0078222732990980148, 0.0036461972631514072, 0.011725381948053837, } };
const TfLiteAffineQuantization quant17 = { (TfLiteFloatArray*)&quant17_scale, (TfLiteIntArray*)&g0::quant6_zero, 3 };
const MODEL_SECTION(EI_MODEL_SECTION) ALIGN(16) int32_t tensor_data18[96] = { 1433, 9240, 23, 3060, 8288, 12284, -405, 1535, 9404, -1330, 20066, 4358, 1730, 750, 3824, 377, 5945, 3435, -1095, 9729, 654, 7478, -1218, 1674, -7926, 988, 3541, 2465, 6294, 497, 4120, 2988, 2638, 11550, 5099, 5200, 4953, 1088, 6114, 2896, 21731, 1294, 1358, 2363, 2592, 6372, 8286, 9907, 1589, -1087, 2344, 6612, 4405, -1905, 13204, 458, 891, 17953, 2514, 1703, 3304, 11692, 8163, -2439, 22087, 8531, 2413, 3789, 6230, 3522, 2692, 1930, -2671, 4750, 1993, 4649, 674, 10437, 4236, 11610, 3066, 1117, 3174, 17258, 499, 8238, 7142, 2153, -378, 4955, 1269, 7799, 4118, 3503, 4032, 10044, };
const TfArray<96, float> quant18_scale = { 96, { 0.00021726438717450947, 8.9000342995859683e-05, 0.0002965231251437217, 0.00014221991295926273, 9.2669841251336038e-05, 7.3720206273719668e-05, 0.00018780886603053659, 0.00018724023539107293, 8.5131709056440741e-05, 0.00014574817032553256, 4.3483218178153038e-05, 0.00010189347085542977, 0.00017503775598015636, 0.00022950737911742181, 0.00011704006465151906, 0.00014937040396034718, 0.00011306244414299726, 0.00017091819609049708, 0.00017005998233798891, 8.335259190062061e-05, 0.00025468302192166448, 0.0001007846076390706, 0.00019635137869045138, 0.00013526208931580186, 9.793887147679925e-05, 0.00012794900976587087, 0.00014704311615787446, 0.00013817200670018792, 0.00012718536891043186, 0.00028444884810596704, 0.00011958606046391651, 0.00016036440501920879, 0.00015520106535404921, 7.1736554673407227e-05, 0.00010244951408822089, 0.00012280317605473101, 9.8506556241773069e-05, 0.00023168479674495757, 8.2587714132387191e-05, 0.00012542247714009136, 4.5503951696446165e-05, 0.00017253478290513158, 0.00021751598978880793, 8.6252010078169405e-05, 0.00010869528341572732, 0.00011626589548541233, 9.3130809545982629e-05, 8.3704268035944551e-05, 0.00016761703591328114, 0.0001981962559511885, 0.00015587592497467995, 0.00010089334682561457, 0.00012657787010539323, 0.00019009760580956936, 5.9422865888336673e-05, 0.00024309237778652459, 0.00024910818319767714, 5.2129147661617026e-05, 0.00010645655129337683, 0.00015972643450368196, 0.00015377457020804286, 6.4067557104863226e-05, 8.9469613158144057e-05, 9.2161804786883295e-05, 4.0974402509164065e-05, 9.2331960331648588e-05, 0.00015483448805753142, 0.00014822337834630162, 0.00013535177276935428, 0.00014181213919073343, 0.00016142198001034558, 8.3832339441869408e-05, 0.00015961792087182403, 0.00012654496822506189, 0.00022130992147140205, 0.00013815407874062657, 0.00020758235768880695, 8.2468759501352906e-05, 0.00014104245929047465, 7.4659867095761001e-05, 0.00013393492554314435, 9.7873009508475661e-05, 0.00016207057342398912, 5.1566403271863237e-05, 0.00013448945537675172, 8.6107524111866951e-05, 0.00010148836736334488, 0.00017673299589660019, 0.00022832237300463021, 0.00012798841635230929, 0.00016664288705214858, 0.00010261502029607072, 0.00014063519483897835, 0.0001409597898600623, 0.00013354240218177438, 7.7122662332840264e-05, } };
const TfLiteAffineQuantization quant18 = { (TfLiteFloatArray*)&quant18_scale, (TfLiteIntArray*)&g0::quant6_zero, 0 };
const MODEL_SECTION(EI_MODEL_SECTION) ALIGN(16) int8_t tensor_data19[96*1*1*16] = { 
  /* [0][0][][] */ 57,15,14,87,-127,-40,80,62,54,107,-4,74,29,-1,61,75, 
  /* [1][0][][] */ -49,6,-82,12,127,122,-25,1,-48,14,-46,63,-41,109,-90,-69, 
  /* [2][0][][] */ -42,49,47,-10,37,68,-2,30,21,-17,26,-29,52,-127,6,18, 
  /* [3][0][][] */ 127,-27,2,-3,45,23,-11,7,8,36,-80,-21,-17,40,-36,58, 
  /* [4][0][][] */ -127,-59,23,-1,-94,36,-85,-103,49,47,-10,-63,-13,33,-69,113, 
  /* [5][0][][] */ -69,10,19,29,127,62,31,8,-30,9,-1,-1,-85,40,-86,-15, 
  /* [6][0][][] */ -127,27,-18,60,1,-112,110,32,53,-51,-83,72,28,16,-30,-7, 
  /* [7][0][][] */ 2,103,72,-70,96,76,77,5,24,37,26,42,127,23,-4,-8, 
  /* [8][0][][] */ -7,-35,-70,23,-93,52,-47,-53,47,-30,67,8,127,26,-63,-21, 
  /* [9][0][][] */ -16,-108,-36,123,-92,-121,-29,28,15,33,48,86,-127,-48,-15,-58, 
  /* [10][0][][] */ -42,0,-96,5,-112,127,113,-94,2,-81,19,-63,38,120,-31,94, 
  /* [11][0][][] */ 1,-127,-33,59,24,95,37,18,-14,54,46,-62,-6,112,-112,112, 
  /* [12][0][][] */ -52,-44,-91,89,-127,-77,21,11,14,25,10,107,-16,-50,-23,18, 
  /* [13][0][][] */ -78,-15,-49,-6,-30,3,21,8,-23,127,6,-21,52,25,5,-26, 
  /* [14][0][][] */ -67,-43,-8,0,25,62,-28,-99,127,-28,25,-36,66,-75,-56,-106, 
  /* [15][0][][] */ 3,-127,103,-53,-73,-43,19,63,17,-64,-88,-38,104,-16,-44,-46, 
  /* [16][0][][] */ -38,-18,14,-54,18,12,-47,-41,77,-127,32,-41,-40,-21,-63,-118, 
  /* [17][0][][] */ -30,3,4,-31,37,11,-9,3,47,-26,27,37,95,-29,-50,-127, 
  /* [18][0][][] */ 60,38,-28,-127,-8,-26,110,-88,-18,68,-10,58,-5,56,12,-109, 
  /* [19][0][][] */ -19,-34,-8,-96,-49,82,10,-3,72,-36,16,-127,7,-1,-63,3, 
  /* [20][0][][] */ 0,44,84,-70,80,-8,-56,91,-90,-99,32,-66,-41,127,21,-19, 
  /* [21][0][][] */ -4,-90,-122,-2,75,8,42,127,-84,-50,-17,27,61,-106,-81,-14, 
  /* [22][0][][] */ 37,-34,70,7,21,-20,19,25,28,127,23,37,2,7,75,-8, 
  /* [23][0][][] */ -127,-101,-39,40,96,76,-2,-31,-41,60,13,-77,-14,49,41,76, 
  /* [24][0][][] */ 2,10,18,27,25,-59,24,-66,23,114,-127,61,-8,-57,87,-74, 
  /* [25][0][][] */ 127,-18,83,115,49,24,5,68,-120,77,94,-28,-29,38,118,0, 
  /* [26][0][][] */ -27,15,18,24,-42,121,-12,23,-47,-20,-75,33,-5,22,52,-127, 
  /* [27][0][][] */ 66,1,-13,-41,-77,-22,-88,33,-115,-47,-69,-39,-89,57,-39,127, 
  /* [28][0][][] */ -86,22,26,-7,39,-4,-85,-9,5,-3,-9,-37,27,-35,-127,-59, 
  /* [29][0][][] */ -38,-79,-51,52,-32,19,127,-1,72,34,-98,60,15,-22,-20,103, 
  /* [30][0][][] */ 50,-51,-32,-19,-87,113,127,-82,54,55,-15,-79,6,82,-75,67, 
  /* [31][0][][] */ -127,15,29,44,-22,55,-9,-37,-25,-67,7,-74,-32,-59,-17,107, 
  /* [32][0][][] */ -109,-104,-60,-11,-127,-70,11,-6,109,51,-94,-47,65,76,5,-22, 
  /* [33][0][][] */ 13,12,-112,75,-127,-108,41,14,-91,21,-24,-16,-17,126,37,64, 
  /* [34][0][][] */ 3,85,30,14,-51,-14,80,-30,26,-127,-1,16,-21,14,55,115, 
  /* [35][0][][] */ 34,9,-59,-28,-100,24,127,-36,29,83,-28,-17,17,71,27,103, 
  /* [36][0][][] */ 24,-26,-38,79,127,-43,11,84,-79,26,-48,-52,24,-2,-31,-1, 
  /* [37][0][][] */ -127,58,-29,-98,56,-78,-23,-31,-5,-11,-4,93,41,-49,6,-106, 
  /* [38][0][][] */ 39,127,1,-46,-97,-72,-76,-55,-66,-74,-2,47,-72,-72,109,21, 
  /* [39][0][][] */ -21,-69,41,59,43,127,107,-62,-52,81,-10,-60,26,109,28,114, 
  /* [40][0][][] */ 69,48,81,101,-23,-39,-14,31,-57,91,-6,2,-76,-13,127,-29, 
  /* [41][0][][] */ -7,-17,9,42,-58,82,-21,51,-31,48,-108,18,7,30,56,-127, 
  /* [42][0][][] */ 42,-121,42,-22,122,35,117,43,-38,-127,-37,-20,-37,-34,9,69, 
  /* [43][0][][] */ 4,-83,12,38,118,-18,-21,127,-72,-69,-121,-50,126,4,-68,70, 
  /* [44][0][][] */ 3,-37,-105,-127,50,106,92,-24,12,-120,-66,88,-49,15,24,117, 
  /* [45][0][][] */ 9,-78,-42,-23,-127,58,-48,-64,36,1,25,-43,-2,0,-49,13, 
  /* [46][0][][] */ 17,-66,-18,-3,114,-67,-26,119,17,-13,65,105,-77,-44,38,-127, 
  /* [47][0][][] */ -123,0,-41,71,-25,39,46,19,-47,121,44,73,-36,120,-11,127, 
  /* [48][0][][] */ 40,-4,-80,-93,0,-70,5,51,35,-103,2,36,-63,-10,-22,-127, 
  /* [49][0][][] */ 28,13,15,48,25,14,44,20,-41,127,-10,7,-28,-27,31,75, 
  /* [50][0][][] */ 13,9,21,11,-127,-23,-8,-57,53,26,17,72,-23,-55,26,-9, 
  /* [51][0][][] */ -1,-12,-14,-74,-21,127,25,-89,21,12,-5,-66,106,57,-59,-10, 
  /* [52][0][][] */ 4,-14,-5,-88,72,-92,4,-39,36,-5,109,-49,45,16,-5,127, 
  /* [53][0][][] */ -48,-63,47,-41,-56,-116,51,-127,14,59,-120,86,-11,-5,43,-101, 
  /* [54][0][][] */ 116,120,11,-4,-109,-64,-86,-127,-6,17,49,102,-89,-16,121,10, 
  /* [55][0][][] */ -1,-8,-35,79,-2,31,-1,-9,27,127,0,40,-14,13,-13,25, 
  /* [56][0][][] */ 18,-75,-79,70,-7,84,41,63,127,29,-8,-2,-64,-20,40,47, 
  /* [57][0][][] */ 42,29,78,-21,78,-42,-33,-2,114,-41,20,127,17,-66,63,-77, 
  /* [58][0][][] */ 48,-62,61,-41,81,49,-31,75,69,127,-1,5,27,-20,85,-1, 
  /* [59][0][][] */ -51,35,12,-20,29,-83,-30,23,-25,45,-101,-59,-127,-4,54,-6, 
  /* [60][0][][] */ 45,15,-15,37,-46,-64,-15,-70,13,93,14,127,-49,-62,0,2, 
  /* [61][0][][] */ 35,76,-40,-6,-100,-127,-55,-93,-127,-31,-28,32,-105,-14,75,127, 
  /* [62][0][][] */ -53,94,-54,12,-84,127,-18,31,-48,-24,-32,25,-62,50,72,-59, 
  /* [63][0][][] */ 59,-17,-97,-127,-27,-94,109,21,-41,-119,-56,53,-61,114,50,-33, 
  /* [64][0][][] */ -72,-27,20,-66,97,-46,2,127,-123,17,-83,-36,-71,105,50,61, 
  /* [65][0][][] */ -38,18,-48,28,32,-16,-63,0,-127,-51,9,3,-121,97,-21,87, 
  /* [66][0][][] */ -22,57,-25,60,-43,127,-39,23,-70,42,-24,62,-48,70,59,-115, 
  /* [67][0][][] */ 25,-4,-51,-28,-18,-91,48,-47,-27,7,8,127,-54,-16,-17,-86, 
  /* [68][0][][] */ -33,-86,1,61,17,19,-11,51,32,72,87,38,-127,28,28,-12, 
  /* [69][0][][] */ -25,64,82,-89,85,25,-38,105,-3,98,47,41,127,-51,7,-78, 
  /* [70][0][][] */ 47,0,85,-34,115,17,-118,-43,-116,-80,-20,43,-36,50,-127,-38, 
  /* [71][0][][] */ -7,-127,37,-18,115,-35,10,45,-94,127,-96,-21,-7,125,-58,38, 
  /* [72][0][][] */ 28,55,30,54,-83,-46,-127,-77,-19,26,-9,109,9,96,-79,16, 
  /* [73][0][][] */ -21,-26,-33,-36,19,-76,27,-24,26,58,88,-28,34,-6,-73,127, 
  /* [74][0][][] */ -8,-10,-31,41,-63,8,102,39,54,59,40,107,127,30,-29,20, 
  /* [75][0][][] */ -40,67,-43,19,-72,127,2,18,-54,8,-22,24,-13,26,20,-48, 
  /* [76][0][][] */ -94,42,-61,39,-81,14,-39,6,48,66,-46,-70,79,-74,-127,50, 
  /* [77][0][][] */ 98,127,-107,118,83,87,113,36,45,26,91,-58,75,68,14,16, 
  /* [78][0][][] */ 13,-25,0,-67,50,-82,39,-51,33,33,87,-27,7,-20,-22,127, 
  /* [79][0][][] */ -39,65,17,32,31,-71,-32,-12,-120,5,55,16,125,71,-127,-50, 
  /* [80][0][][] */ -90,0,105,-5,114,94,3,-127,-112,92,-108,-41,-1,-85,18,71, 
  /* [81][0][][] */ 62,75,-27,-29,30,-16,111,95,-127,124,-57,-43,-28,29,107,127, 
  /* [82][0][][] */ 65,75,-41,-23,8,-52,77,-49,0,42,-90,85,127,4,61,-73, 
  /* [83][0][][] */ 25,-41,40,40,-16,5,-46,-73,52,-31,73,24,37,-80,-30,-127, 
  /* [84][0][][] */ -127,-72,-61,-21,8,97,67,0,24,75,76,64,42,54,-55,25, 
  /* [85][0][][] */ 74,-4,127,-63,81,46,6,42,28,114,-65,-14,2,72,63,-25, 
  /* [86][0][][] */ -80,75,-14,-1,47,112,24,43,107,61,127,-26,-45,36,-26,-41, 
  /* [87][0][][] */ 6,-58,46,-48,56,-127,18,-44,54,-1,71,-24,26,-30,-30,69, 
  /* [88][0][][] */ -56,73,29,-5,70,-33,26,21,-90,-41,127,-41,42,81,94,-96, 
  /* [89][0][][] */ -8,38,-1,33,-17,127,-20,35,-21,30,-66,59,-26,77,43,-123, 
  /* [90][0][][] */ 36,-71,6,19,127,3,38,17,-16,-61,-97,-24,-10,-48,-35,46, 
  /* [91][0][][] */ -40,12,0,-49,-21,-17,-51,15,-66,-4,-83,-127,-56,-56,-19,26, 
  /* [92][0][][] */ 59,49,86,66,-127,-125,-6,18,-43,45,-3,-25,-25,-74,9,8, 
  /* [93][0][][] */ -20,-127,-27,42,-2,-23,-20,84,26,68,-2,26,-40,86,-49,-34, 
  /* [94][0][][] */ 83,-4,95,-10,22,-51,4,51,-7,70,22,69,6,15,127,15, 
  /* [95][0][][] */ -79,-58,-48,-14,127,-17,39,75,-63,-10,-91,-26,-11,21,-54,22, 
};
const TfArray<96, float> quant19_scale = { 96, { 0.0044727176427841187, 0.0018322073156014085, 0.0061043789610266685, 0.0029278129804879427, 0.001907749567180872, 0.0015176425222307444, 0.0038663309533149004, 0.0038546249270439148, 0.0017525656148791313, 0.0030004475265741348, 0.00089516810839995742, 0.0020976320374757051, 0.0036034181248396635, 0.0047247582115232944, 0.0024094476830214262, 0.003075016662478447, 0.0023275623098015785, 0.0035186107270419598, 0.0035009430721402168, 0.0017159398412331939, 0.005243037361651659, 0.0020748043898493052, 0.0040421914309263229, 0.0027845758013427258, 0.0020162204746156931, 0.0026340249460190535, 0.0030271061696112156, 0.0028444807976484299, 0.0026183039881289005, 0.0058558117598295212, 0.0024618608877062798, 0.003301345044746995, 0.0031950499396771193, 0.0014768060063943267, 0.002109078923240304, 0.0025280900299549103, 0.0020279071759432554, 0.004769583698362112, 0.0017001936212182045, 0.0025820124428719282, 0.00093676801770925522, 0.0035518906079232693, 0.0044778971932828426, 0.0017756286542862654, 0.0022376575507223606, 0.0023935101926326752, 0.0019172392785549164, 0.0017231795936822891, 0.0034506514202803373, 0.0040801712311804295, 0.003208942711353302, 0.0020770428236573935, 0.0026057977229356766, 0.003913448192179203, 0.0012233100133016706, 0.0050044259987771511, 0.0051282704807817936, 0.0010731577640399337, 0.0021915698889642954, 0.0032882113009691238, 0.0031656832434237003, 0.0013189280871301889, 0.0018418679246678948, 0.0018972908146679401, 0.00084352033445611596, 0.0019007937517017126, 0.0031875032000243664, 0.0030514034442603588, 0.0027864219155162573, 0.0029194185044616461, 0.0033231168054044247, 0.0017258160514757037, 0.0032859775237739086, 0.0026051204185932875, 0.0045560011640191078, 0.0028441117610782385, 0.0042733983136713505, 0.0016977447085082531, 0.0029035734478384256, 0.0015369869070127606, 0.0027572540566325188, 0.0020148647017776966, 0.0033364691771566868, 0.0010615728097036481, 0.002768669743090868, 0.0017726542428135872, 0.0020892922766506672, 0.0036383173428475857, 0.0047003631480038166, 0.0026348361279815435, 0.0034305970184504986, 0.0021124861668795347, 0.0028951892163604498, 0.0029018714558333158, 0.0027491732034832239, 0.0015876871766522527, } };
const TfLiteAffineQuantization quant19 = { (TfLiteFloatArray*)&quant19_scale, (TfLiteIntArray*)&g0::quant6_zero, 0 };
const MODEL_SECTION(EI_MODEL_SECTION) ALIGN(16) int32_t tensor_data20[16] = { -2946, 8387, -14562, 2368, 7191, -11594, -34477, -8512, -2852, 3466, -14913, -13826, 9918, -9454, -4662, -4, };
const TfArray<16, float> quant20_scale = { 16, { 0.0001299895957345143, 0.00014258157170843333, 0.00014669397205580026, 0.00014710926916450262, 9.4677343440707773e-05, 0.00014894841297063977, 0.00011320755584165454, 0.000101437748526223, 0.00011752863792935386, 9.9235745437908918e-05, 0.00016919805784709752, 0.00015983088815119117, 0.00012371198681648821, 9.2885951744392514e-05, 0.00012350112956482917, 0.00015572315896861255, } };
const TfLiteAffineQuantization quant20 = { (TfLiteFloatArray*)&quant20_scale, (TfLiteIntArray*)&g0::quant8_zero, 0 };
const MODEL_SECTION(EI_MODEL_SECTION) ALIGN(16) int8_t tensor_data21[16*1*1*48] = { 
  /* [0][0][][] */ 18,30,8,-39,66,68,-33,56,-6,105,3,34,-32,33,-18,54,29,73,27,-66,-56,67,-3,50,66,37,33,44,-26,-50,-17,77,-18,-1,-56,50,51,-127,-32,6,20,-20,54,-8,-14,-49,-52,-22, 
  /* [1][0][][] */ -58,-14,-71,-35,21,91,-44,17,-3,-22,-42,28,46,-5,-22,-19,-28,-22,5,6,-50,42,-98,-42,-47,-29,37,72,-19,-29,29,-18,11,-65,-29,44,14,-56,127,-28,-19,33,-36,-8,41,61,9,4, 
  /* [2][0][][] */ 18,6,49,-42,-18,-92,6,32,98,63,-55,6,111,-59,127,71,-67,-27,-33,37,78,-91,-40,-111,-2,-50,40,-51,27,38,-31,16,23,-46,78,25,-82,16,-9,-35,18,19,57,-25,13,-86,92,-47, 
  /* [3][0][][] */ 40,-1,-15,-26,35,106,22,-29,54,-36,11,-15,-48,0,15,57,-50,-78,42,-123,-4,15,-44,-26,-25,99,127,46,-5,-45,12,36,66,-50,83,54,-28,-71,-2,43,37,13,-15,18,13,15,-17,-35, 
  /* [4][0][][] */ 110,-9,-13,-31,68,73,68,23,84,-14,-98,24,42,-16,33,-11,-103,-123,-22,-76,-5,31,-41,-20,-80,119,-100,104,-46,-46,25,82,35,-38,33,-25,0,12,-33,28,-44,-7,4,43,-58,127,-28,-66, 
  /* [5][0][][] */ 11,-12,-67,16,-29,42,16,-32,66,52,44,117,54,-37,44,-11,-47,127,-10,48,-3,-7,-79,-21,27,-10,-80,-52,-34,43,27,-10,-52,-1,38,3,-59,11,-109,-9,85,-37,29,44,-13,23,-67,24, 
  /* [6][0][][] */ 48,21,1,68,-9,-16,84,-41,0,60,113,98,42,32,-31,43,40,-34,-77,81,37,-62,-45,54,-83,68,56,1,95,58,-24,-1,68,-55,-91,-17,83,33,-2,-9,-3,48,42,-20,50,127,10,-11, 
  /* [7][0][][] */ -89,-22,-16,28,-59,-49,34,75,95,124,-63,-88,-111,13,-17,0,-94,103,-20,115,-40,42,26,64,-12,-103,-28,-95,43,36,-14,0,-15,8,13,-17,13,-79,127,9,11,41,24,2,47,83,-31,-23, 
  /* [8][0][][] */ 6,-65,30,-59,42,-63,65,-47,-34,-112,28,26,-19,1,44,20,3,-5,-33,97,-3,30,-35,24,47,-12,-68,-31,-127,-10,-43,-109,-5,-67,-11,78,-11,39,89,10,12,-5,65,98,-14,-65,-54,69, 
  /* [9][0][][] */ 13,-36,21,-27,51,83,-21,31,11,-29,-31,-13,32,-55,127,-24,11,-100,61,24,-56,42,53,-43,-33,-73,-34,81,44,79,-29,-10,-56,30,15,119,-16,-28,-59,-30,-24,16,30,116,68,100,-80,-2, 
  /* [10][0][][] */ -13,33,-34,-12,13,18,-78,-38,41,29,65,5,-27,-28,48,-47,-54,127,7,69,-10,-13,15,16,-45,34,12,97,42,14,-28,-23,80,13,-17,26,-12,-48,-45,8,-95,-2,15,-27,11,31,33,49, 
  /* [11][0][][] */ -33,60,-23,50,25,64,-14,3,16,18,-127,-69,61,30,-31,-37,2,21,-39,-42,2,-7,91,14,56,16,-2,25,-11,15,-20,41,35,-5,-53,14,54,67,113,31,42,-15,48,-12,-53,-38,85,10, 
  /* [12][0][][] */ -56,-25,36,0,-67,-67,18,1,-25,-42,-127,22,78,-88,27,38,44,95,84,-124,-42,47,-40,-80,-11,-14,15,-24,23,20,-24,69,74,77,24,-38,-55,-32,22,1,-39,14,63,4,36,-20,-49,-45, 
  /* [13][0][][] */ -53,-127,-32,-95,-1,37,60,28,-90,24,104,-52,54,30,115,17,87,35,-29,-101,69,-71,100,15,-68,7,-17,4,-32,-84,-107,4,50,-23,-82,36,37,-64,68,-79,-8,49,39,69,51,-14,99,-63, 
  /* [14][0][][] */ 65,17,-53,-22,-39,30,-86,-34,-16,69,47,55,-3,-77,15,-38,47,-113,7,16,84,-48,12,-26,2,123,-94,-2,-61,-19,-95,0,127,21,74,-11,-60,8,-28,57,-10,-41,106,-27,-53,-33,-47,47, 
  /* [15][0][][] */ -73,3,43,-12,112,13,6,39,37,91,-25,69,50,-14,-29,-12,2,38,6,-52,25,-53,-56,-62,54,-69,-49,67,-22,5,14,11,-73,-22,127,-6,-94,5,54,-17,-49,-26,18,9,-43,-28,-22,-3, 
};
const TfArray<4, int> tensor_dimension21 = { 4, { 16,1,1,48 } };
const TfArray<16, float> quant21_scale = { 16, { 0.0055245580151677132, 0.0060597164556384087, 0.0062344935722649097, 0.0062521439976990223, 0.0040237870998680592, 0.0063303075730800629, 0.0048113209195435047, 0.0043111043050885201, 0.004994967021048069, 0.0042175189591944218, 0.0071909171529114246, 0.0067928126081824303, 0.0052577592432498932, 0.0039476528763771057, 0.0052487980574369431, 0.0066182343289256096, } };
const TfLiteAffineQuantization quant21 = { (TfLiteFloatArray*)&quant21_scale, (TfLiteIntArray*)&g0::quant8_zero, 0 };
const MODEL_SECTION(EI_MODEL_SECTION) ALIGN(16) int32_t tensor_data22[48] = { 16410, 616, 17483, -586, 16978, -3077, 43081, 676, 10841, 42681, 3872, 23079, 5616, 13397, 50149, 22909, 1059, 4986, 5973, 35142, 1291, 16301, 2558, 15132, 15284, 36448, -2920, -3482, -3319, 21147, 20196, -153, 2224, -3951, 2897, 12577, 10111, 28597, 2358, 18586, 24254, 1785, 1519, 15895, -3412, 320, 40462, 20145, };
const TfArray<1, int> tensor_dimension22 = { 1, { 48 } };
const TfArray<48, float> quant22_scale = { 48, { 8.7182219431269914e-05, 0.00018505261687096208, 8.0980411439668387e-05, 9.2657712229993194e-05, 9.8875541880261153e-05, 9.327942825620994e-05, 4.5767039409838617e-05, 0.00021539320005103946, 0.00011828089191112667, 4.4907799747306854e-05, 5.1687005907297134e-05, 0.0001238678814843297, 4.5177479478297755e-05, 0.00010761780868051574, 3.5999240935780108e-05, 6.7478678829502314e-05, 6.8936293246224523e-05, 4.0932569390861318e-05, 0.00013922642392572016, 6.0974780353717506e-05, 5.8430094213690609e-05, 7.7736040111631155e-05, 8.0041645560413599e-05, 0.00015099899610504508, 5.4609870858257636e-05, 5.8602421631803736e-05, 9.0830515546258539e-05, 5.0000180635834113e-05, 0.00022158306092023849, 6.2314051319845021e-05, 4.9812249926617369e-05, 0.00026172868092544377, 0.00012159318430349231, 0.00018118343723472208, 7.5651798397302628e-05, 6.8991714215371758e-05, 8.0266807344742119e-05, 6.5416970755904913e-05, 9.7494717920199037e-05, 5.8430345234228298e-05, 5.2449693612288684e-05, 0.00015028960478957742, 0.00020624695753213018, 8.8587352365721017e-05, 0.00016423234774265438, 6.4970176026690751e-05, 5.3294075769372284e-05, 7.3585862992331386e-05, } };
const TfArray<48, int> quant22_zero = { 48, { 0,0,0,0,0,0,0,0,0,0,0,0,0,0,0,0,0,0,0,0,0,0,0,0,0,0,0,0,0,0,0,0,0,0,0,0,0,0,0,0,0,0,0,0,0,0,0,0 } };
const TfLiteAffineQuantization quant22 = { (TfLiteFloatArray*)&quant22_scale, (TfLiteIntArray*)&quant22_zero, 0 };
const MODEL_SECTION(EI_MODEL_SECTION) ALIGN(16) int8_t tensor_data23[1*3*3*48] = { 
  /* [0][0][][] */ -58,-5,-86,58,-44,45,-27,110,-92,-38,98,-81,79,-63,-99,-29,112,110,80,-97,101,-94,109,-84,-103,-48,55,88,-96,-91,-110,102,67,-100,46,-46,-107,-127,91,-99,-26,-127,68,-95,93,79,-101,-73, -96,35,-20,80,-42,75,-45,127,-127,-57,93,-91,85,-101,-82,-74,127,124,127,-127,94,-75,127,-71,-87,-65,49,127,36,-69,-107,75,80,-127,111,-78,-69,-94,127,-124,-93,81,66,1,-14,76,-63,-127, -74,39,14,29,-35,38,-40,88,-26,-33,44,-57,68,-102,-64,-16,44,75,54,-31,34,-63,20,-22,-62,-16,9,43,75,-9,-22,30,18,-43,21,-38,-52,-41,44,-119,-127,-12,5,7,-22,108,-59,-87, 
  /* [0][1][][] */ -107,59,-69,127,-64,122,-101,44,-78,-111,87,-86,116,-98,-100,-92,75,85,-36,-59,127,-87,84,-63,-91,-63,88,91,-127,-127,-67,109,52,63,99,-95,-101,-98,97,-98,-86,-102,127,-127,127,66,-127,-23, -127,127,-127,109,-127,127,-127,102,-88,-127,127,-127,127,-120,-127,-127,113,127,-83,-77,106,-127,119,-127,-127,-127,127,90,16,-125,-127,127,127,71,105,-127,-127,-67,121,-127,-69,109,72,-66,-43,121,-83,-86, -78,58,-62,67,-54,48,-53,94,-41,-58,66,-45,93,-127,-83,19,78,70,-68,-1,92,-47,33,-59,-112,-31,45,24,115,-97,-45,76,30,22,65,-50,-76,-46,66,-16,-16,-48,79,-102,-49,127,-50,-15, 
